1
0.0 0.0 2.1168705115639442E-7 -1.8197102911204878E-6 -1.5418019356392364E-6 -3.68771519192938E-5 -2.7693430381521407E-5 7.019485477479527E-6 -2.2958447159230304E-5 -1.8506361444105056E-5 -4.311265745272832E-6 3.673110288964197E-6 7.372177491154527E-6 1.363249057677746E-5 2.062375632825989E-5 1.3441001130369717E-5 3.7575588881062672E-6 2.8417152571036524E-8 -4.0692269878403713E-8 0.0 -1.2844527738117398E-8 1.1788819886267845E-7 -2.6398677244393413E-6 2.8119799406654537E-5 3.886404744145172E-5 -5.743663689564016E-5 -2.0214932031133238E-4 -3.2336775380559663E-4 -3.2026147098652616E-4 -1.5240897855544E-4 1.8164473441794362E-5 5.9719920486280956E-5 6.13893349658951E-5 5.9304546872699455E-5 -9.76562779809283E-7 -1.0569275133521727E-7 1.6240646689917952E-5 1.5965545443364364E-5 2.8365110260331726E-6 8.007779655309345E-7 1.0960252029388558E-7 -1.3279080375152013E-6 4.0929282277486164E-6 1.195847973816793E-6 -2.030034028368687E-4 -9.454519699442135E-4 -0.0016553930620729614 -0.001943972100375164 -0.0015719244711512907 -7.890505803229879E-4 -4.804254196672375E-4 -4.0580458685061027E-4 -9.379720032611661E-4 -0.0022276509475311485 -0.002832872563352101 -0.0017020937434097713 -5.853832429077035E-4 -1.6468181602751408E-4 4.149337157891721E-6 -4.699430927748508E-6 4.664810531045072E-7 -6.550325173487886E-8 -4.638965594504618E-6 -5.188319836372823E-4 -0.001782066306649635 -0.0046796346429446465 -0.0071710101354431136 -0.007714453588864943 -0.007204580901990082 -0.006886615211722504 -0.008089791572363529 -0.010154662773769429 -0.013260966474506884 -0.016835922119675033 -0.017451681219199846 -0.012041445736684543 -0.004708773417397195 -0.0011572093385080668 -2.4105437098090877E-4 -5.6758898207715136E-5 5.917605492406853E-7 1.6448336235067504E-5 -1.5842442272672884E-4 -0.0017662606236808075 -0.0058009646081240915 -0.01229589839007916 -0.01818220351004643 -0.020110646616530344 -0.021314257328764002 -0.02481238718987886 -0.02993267575273171 -0.034048744090481586 -0.03721581307364277 -0.04238927954702447 -0.044865804693435846 -0.034373661948061796 -0.015342480846088791 -0.004153810477053946 -0.0013977522958379925 -3.080819935758149E-4 -7.584040309048691E-6 -7.387765757343363E-6 -5.900460206564375E-4 -0.004600797987202872 -0.014653425095841303 -0.028401779443502903 -0.04103748528277119 -0.04700307163984283 -0.051845324621595135 -0.05980762664218744 -0.06453413171768589 -0.06314377370299419 -0.060919929791883015 -0.06338085901643212 -0.06744753600269246 -0.05625017842455231 -0.02748597227866684 -0.011039413192393328 -0.005151190027904216 -8.635190617398248E-4 -1.5219493722432193E-5 -8.024667710190503E-5 -0.0015995676693986258 -0.010757696268364553 -0.030160595317322438 -0.054895890707635425 -0.0736800930713754 -0.08401108648877781 -0.09021848697456834 -0.09703542604003781 -0.09689607580252838 -0.08932642611004987 -0.07652629280910696 -0.06586148039816446 -0.0635463956345502 -0.055868999947386686 -0.03146207899220874 -0.01822223673301388 -0.009709177998569565 -0.0013379039157673403 3.1449855569194658E-6 -1.4926028773144053E-4 -0.0037384424683829433 -0.021196761862600128 -0.05284949431660218 -0.08721322542275954 -0.10958509542180883 -0.11631590106578822 -0.11465366496551976 -0.11524912837273725 -0.11336237397363372 -0.10161968531409135 -0.0691003540109552 -0.0414485713517818 -0.039812552982409294 -0.05164731603536162 -0.04666573500145142 -0.029665645133056667 -0.013088925688444754 -0.0017174964401207259 1.753694226084222E-5 -2.783660376804687E-4 -0.006430261349420097 -0.031171895280805433 -0.072243036748986 -0.11001584174043962 -0.12599971330656354 -0.11459495058768585 -0.10107034215619418 -0.0996691532279152 -0.09672429588310234 -0.0717628517914715 -0.02529532164997867 -0.005556403687349873 -0.02770324348898924 -0.06387303739731334 -0.07005711077012461 -0.04238087697935102 -0.013421415995384206 -0.0019422294639511064 6.286102917722374E-5 -7.200434165701035E-4 -0.009580140336311615 -0.03724762850818576 -0.08057426305510773 -0.11026437307021825 -0.10073700313069837 -0.0627271799811465 -0.03603465898208351 -0.02649573626025006 -0.02504434698788266 -0.010130863899540358 0.01247887691059555 -5.629997704955179E-4 -0.04599996099687799 -0.08173451177143498 -0.07510132028901056 -0.04266461170502053 -0.013084866569719276 -0.0020996670163140395 1.2859972575978134E-4 -0.001557928658059604 -0.013338513342402608 -0.04043696327579639 -0.07965273188198096 -0.08909577375788832 -0.04802712084420348 0.01133510852647049 0.039187068394793724 0.02653172515301388 -0.006112604498843483 -0.021552571626858058 -0.033272581605233525 -0.054033666907255695 -0.08122710496383553 -0.09151674640630945 -0.06576561978164634 -0.035839587851002205 -0.012318896613992741 -0.002116018889992978 1.7152449113234865E-4 -0.002570578401922986 -0.016927580627881186 -0.04233506890337007 -0.07427270030701749 -0.07390267134528196 -0.02735576756231258 0.013478505678853118 0.007361481387373253 -0.04031971015586484 -0.09320382261400639 -0.11074614637962632 -0.1108544302463391 -0.10762367352352718 -0.11076454156288551 -0.09650807802995343 -0.05954945530300244 -0.029216883694889256 -0.00988947852788194 -0.0016367174084182161 2.3815170899928946E-4 -0.0029309031933837807 -0.015457963539148509 -0.031420768484661216 -0.05560278927869187 -0.06706633113847893 -0.05391134467925536 -0.05153108729889438 -0.07960215550538037 -0.12234490990130728 -0.14675979146538784 -0.14068618031976143 -0.1267497180339156 -0.12120811580074471 -0.11455931326030236 -0.0862180009326443 -0.04807914414740113 -0.01963502748059791 -0.005926981780283796 -9.36160733009129E-4 1.8354401534554136E-4 -0.0022312294483868237 -0.009594407192347495 -0.013654928173141342 -0.037259067555505676 -0.06968892182290667 -0.08780625623002095 -0.09914994378350885 -0.11041310116257602 -0.11396564315512986 -0.11016362743506204 -0.10662353594348908 -0.1025590560311116 -0.0980048138470838 -0.08451251610223189 -0.05756343886263173 -0.02939807210520411 -0.010915612313662918 -0.0029968138054313124 -3.7037834267521474E-4 6.80823797688161E-5 -0.0011043654797836036 -0.004242900384650338 -0.008074899988270025 -0.03321179294787399 -0.07150347485874121 -0.09356941257660079 -0.09379766721893511 -0.08315015991306035 -0.07289336255661359 -0.06988268440671888 -0.07208805325538148 -0.0723838209018852 -0.06484791559652672 -0.05216945625998294 -0.03229062114798638 -0.014699006860862115 -0.005806905426402631 -0.001679035152622251 -1.3125719388280382E-4 5.8321462520766125E-6 -2.9070184685093E-4 -0.0012933893178640548 -0.007268968183744442 -0.027460607085507113 -0.05176085582734859 -0.0625614352254044 -0.05469272144898485 -0.043616550448070855 -0.03988360409041142 -0.0406524609055619 -0.0421158001686635 -0.04148100675499102 -0.035745129154108796 -0.025907739017831822 -0.014484422665918154 -0.006464057660009966 -0.0025887146798907923 -8.543978305908767E-4 -1.636519438815174E-4 2.1219741927116774E-7 -1.4756104502052284E-5 -4.1360427015430835E-4 -0.005132441312776197 -0.016834713436890823 -0.02857078852325206 -0.030083412079843674 -0.023233947086726582 -0.019311596873458212 -0.020178794744653575 -0.021159126479183415 -0.0210898183088344 -0.019629413164329753 -0.015967409856510656 -0.010716340763301104 -0.005670443026296775 -0.0024373337951457126 -8.791844640535337E-4 -2.7428174962790925E-4 -5.9482518092810174E-5 1.8646074361540848E-6 6.3042429327197874E-6 -5.1564196592199554E-5 -0.0020445078462754504 -0.007386535481597524 -0.0119389821583334 -0.010194070446807329 -0.005187216184891076 -0.00465048745006956 -0.006165512799643289 -0.006432625854306674 -0.006552073326236628 -0.006653609756588809 -0.0046995498012661376 -0.0027560270622966157 -0.001392439945528263 -4.2536300374619346E-4 -6.735988972979948E-5 -2.5303190442893146E-5 3.85529095941155E-6 -7.132222385921422E-8 1.3613592957724553E-6 2.559322640817337E-5 -1.7199730283000046E-4 -0.0014840911415575017 -0.003185881938394642 -0.0022106258603733463 -3.775299475831978E-4 -7.718698599362059E-5 -1.769757226091856E-4 -1.5994309818813466E-4 -4.562956272098546E-4 -9.341613639725964E-4 -5.113169726242467E-4 -2.2710401404940414E-4 -1.0466451782342254E-6 -2.84752650274938E-5 1.4907911180770877E-5 3.938359851148588E-6 3.8647132936825043E-7 0.0 -1.3009970417681674E-7 1.0263251010277937E-7 2.160472825831874E-5 -1.171951641906202E-4 -1.8750453774361587E-4 -6.0073698287473125E-5 -8.645022112879161E-6 -4.284873341653112E-5 1.486949216563146E-5 2.8435012619378498E-5 -8.046045197974509E-6 -3.044192126168235E-6 2.160136332377093E-4 2.498024338561048E-5 1.7699599045330472E-5 -7.716007417840454E-6 -6.321927006901222E-7 1.0620880470280285E-7 0.0 
2
0.0 0.0 -1.0887971221352328E-7 1.3068125297548279E-6 5.01338625095805E-7 -5.7694905993672486E-5 -7.418151815379504E-5 -7.02617425719428E-5 -3.388993005412918E-5 -3.223768674168034E-5 -7.867528144677548E-6 5.815737456010057E-6 1.0721715976861548E-5 1.5736259233537743E-5 8.975043542103525E-6 5.359800802344724E-6 5.854083431839551E-6 5.6496081591611956E-8 -5.6573981284538284E-8 0.0 -1.6416060893383105E-8 1.3461313610843296E-7 1.675832343122913E-6 -9.045234277509282E-6 -1.3240641095949493E-6 9.995301962070476E-6 -3.5071834484775156E-4 -5.907124066287529E-4 -4.527691837742716E-4 -2.276033044313792E-4 -1.4126848369384016E-5 -2.8709182825900824E-5 -2.4440648354023744E-4 -4.7791351842158946E-4 -4.3852061438601843E-4 -2.331715109821257E-4 -9.354471377672688E-5 6.942421451744506E-6 4.611057591481341E-6 9.890945244433807E-7 1.3850739079543855E-7 -1.567648716144945E-7 -1.1427477225936638E-6 -1.469279714905503E-4 -3.759079949235842E-4 -5.257353367055592E-4 -0.001255449433619129 -0.0022848075992134365 -0.0019279146049065667 -7.760469378886344E-4 -2.9042865659167E-4 2.619225818867284E-4 0.0020684875966699807 0.004350553262293352 0.004900399770859839 0.0022431745096455308 3.821193153129015E-5 -5.474716259904061E-5 -2.40487251064487E-6 -6.204363505424492E-6 6.721626886438243E-7 -9.498294470737809E-6 -3.581982401236313E-5 4.3712337831853414E-4 9.634173236866871E-4 -4.641501115632254E-4 -0.002877747464949097 -0.0062539741910012155 -0.007716438044496948 -0.008824887366369775 -0.009434790066338631 -0.005361426158697133 0.006730959885405555 0.01825493697201368 0.020523038536844198 0.011750481756566043 0.0019031267417358695 -8.055389904971771E-4 -3.8179879830665714E-4 -6.694099865847317E-5 1.2808184645734997E-6 -4.4989486895323714E-5 3.928348306623781E-4 0.0029965145957174784 0.004051490197286262 -7.96297087587846E-4 -0.009081881753682804 -0.01849234187957498 -0.026089440737946286 -0.03268885240053044 -0.033289125155536885 -0.016578291847812766 0.013928527745811402 0.029345249611910568 0.029113470580623236 0.01770234299415612 0.001586918357920875 -0.003634543940087491 -0.0019408492513075413 -3.7075050568464394E-4 -2.5468776708111582E-5 -6.969245713766892E-5 0.0021605753781081395 0.007477981981394285 0.009347345370389618 -0.004186548614492005 -0.02641720068423996 -0.04741472054123165 -0.06375265089917556 -0.07343700973392955 -0.06157561153185655 -0.022138593698812426 0.015601771198611681 0.029459540707686555 0.02582778032672379 0.00941898132464251 -0.013436457422720965 -0.015463262030550734 -0.006319715133851174 -0.0010302034513918373 -6.063402270075733E-5 -2.6052661655928276E-4 0.00551900386532532 0.017699408242697914 0.01604198749695604 -0.013098567984832218 -0.05382381907732154 -0.08721921995155979 -0.10677161978580013 -0.11190583931303807 -0.08253682056980943 -0.028374993956466397 0.00950379712057909 0.022265335066153764 0.01941436741363934 -0.010889789128090736 -0.04928918451965608 -0.03662893748822374 -0.011244152578974787 -0.001533342598396686 -4.5368596977278534E-5 -5.807592220548709E-4 0.010006722572417501 0.025767714752657045 0.016612125178887913 -0.029630014566318832 -0.0844460277832399 -0.11971360663525149 -0.1311910251340739 -0.12578344697764457 -0.08280104388443421 -0.027788205672224835 0.002278130359498507 0.010662996072127735 0.005337585974076341 -0.03858857956281995 -0.08828950234892227 -0.05791090530624885 -0.014706238563541174 -0.001971103071680212 -7.317465450667729E-5 -5.325311138880715E-4 0.015462615685076737 0.03068773674731662 0.0071691763714184925 -0.05559396285514759 -0.10963666045411319 -0.12444803169697312 -0.1198230023318908 -0.1091694198122791 -0.07146823747870738 -0.029014459757151813 -0.006284683691522353 2.449820211266199E-4 -0.01836589470491253 -0.07349743768894022 -0.11494800964619706 -0.06746548897084455 -0.014683125399463353 -0.002250270231562897 -7.77534575602002E-5 -6.821830497906537E-4 0.01951698172751263 0.029354175808019606 -0.014633797605629162 -0.08647139460589724 -0.11913867089838526 -0.11076853314228317 -0.10133172171606265 -0.10488149769959527 -0.0907374419829695 -0.05534826443007333 -0.0244129348026905 -0.019475416979444462 -0.052062615443619016 -0.10690839050974552 -0.12797505236484913 -0.06791031465412323 -0.01441112068321296 -0.0024549771677461617 7.38642076787516E-5 -0.0022889354945145783 0.015814550796822684 0.020294259097944738 -0.03853281721552228 -0.10402862709969389 -0.11253593649223134 -0.09523092726362287 -0.09495880214058575 -0.1151981911249518 -0.11215415057617177 -0.07679064948671518 -0.042472426451896375 -0.04137696088971204 -0.0789696307833216 -0.12295426745866518 -0.11979224687691957 -0.05849857418055002 -0.014021259482469342 -0.0025726855148029758 3.0726299727041624E-4 -0.0033601019523849477 0.009637914368030992 0.011404589566756457 -0.04306758389861223 -0.09855171522151782 -0.10092558425814101 -0.08316203900756264 -0.08300600394057639 -0.10346452377591073 -0.1009340415055726 -0.06975910168795901 -0.04200264064631926 -0.04583743629468542 -0.07820692336803282 -0.10475738188498444 -0.08764714987782544 -0.042116342650661484 -0.011772124177075387 -0.0020526027077142884 2.912361418935579E-4 -0.0038361319925817082 7.62597064633137E-4 -0.0011706215066336562 -0.036580860420635984 -0.08174832473501084 -0.08332178950167161 -0.06818728345514788 -0.06689724507851365 -0.07727178889077913 -0.07670743524967866 -0.061514257095904135 -0.04406821875422338 -0.043257365957852505 -0.05687941581022832 -0.06035572323443969 -0.04783395096920417 -0.025450892093801577 -0.007607851370942514 -0.0011900390718912366 2.2026434078327559E-4 -0.0029039459302199824 -0.004036789018481232 -0.013562719710593646 -0.03475227684966806 -0.061992879375906 -0.06595387945891232 -0.05152515578711806 -0.04595363197869661 -0.04888844671388584 -0.05222762856645653 -0.049241061175206824 -0.040439955006184185 -0.028856734952136188 -0.019667626618718407 -0.017725373526002952 -0.019318931561473445 -0.013609200140658636 -0.0040379294188744455 -5.170787532804749E-4 8.575242667549087E-5 -0.001418389079046931 -0.003079263672992303 -0.012536353676916832 -0.025956027755794264 -0.04256765373511414 -0.0479705485733664 -0.03849111130680767 -0.030220620928349665 -0.03296186178519666 -0.04265150964245272 -0.04082826074257412 -0.024633334712143518 -0.002783385393280301 0.012826402027373797 0.010335229115447838 -0.0028516297726596807 -0.006607305095664767 -0.0024568355206352754 -1.873909441771859E-4 6.751797529743115E-6 -3.9865048369797616E-4 -0.0014391200253533547 -0.008478237023710979 -0.017533288647861682 -0.028186730525637985 -0.03402383062448115 -0.02787429642400071 -0.023823631161876493 -0.029611439655904695 -0.036473730144238874 -0.027158211436531635 -0.0025124089922054166 0.020548013296839775 0.026151648194316646 0.018544753729796602 0.00442306238023955 -0.0026135757857848434 -0.0014215024989112372 -2.2883124052759484E-4 -1.1170101666329189E-5 1.1903002138570171E-4 -4.7302181042711E-4 -0.006813643419297437 -0.01584160030493068 -0.023244012790952104 -0.0239586227938893 -0.018136571804683508 -0.01781218020305843 -0.020689137683574964 -0.020993520804627002 -0.01049805339071687 0.010123604325596024 0.024806906163163694 0.02412362406579578 0.013811346378743155 0.003348817681929624 -5.163776018596362E-4 -4.774012854347486E-4 -8.504452798751605E-5 -6.589179701601706E-6 1.1284563190576507E-4 -2.5239727286322653E-6 -0.0024946130020218563 -0.008732723855787307 -0.01426795202047436 -0.012379019948962698 -0.006079743644173001 -0.005123350174049674 -0.006158496282509831 -0.005720724490220233 3.88189987838956E-4 0.011404011641765868 0.015416972214296668 0.01302285201014831 0.00704362987442917 0.001388250330562113 -2.1868057520157288E-4 -4.1664998988357775E-5 4.920377258810372E-6 2.774621613001284E-7 -3.88168557751309E-6 2.7835725334616758E-5 -8.085112655259032E-5 -0.0017168351529052719 -0.003946426009152464 -0.0028503815303010174 -6.156053914376565E-4 2.820477552074735E-4 2.5229495243032793E-4 -1.9460213068151505E-5 0.0017755426343166166 0.004413578432383873 0.003344891370379075 0.0020767293228271862 0.0012395562033396545 3.74796089712723E-4 -2.2873243893108572E-5 4.317067266581212E-6 5.909117593403732E-7 0.0 -5.783593434850361E-8 1.4812674785124417E-6 1.6821862168358146E-6 -1.5537201836161098E-4 -2.1867521776034403E-4 -7.420529094719365E-5 -9.597547409031386E-6 -4.428898013851704E-5 2.8553076988048324E-5 1.0746845980999236E-4 1.0566823226986609E-4 5.743904846207751E-5 -2.8625838383839337E-4 -7.459347279180982E-5 -8.311551153995695E-5 7.483750721191303E-6 9.926345429060877E-6 -8.353625121399142E-7 0.0 
3
0.0 0.0 -8.916052127297174E-8 5.798762208985657E-7 6.88412284703208E-6 1.797809089996196E-6 -7.497248399785248E-5 -7.212066971981049E-5 -2.972407456983042E-5 -2.6796462288679355E-5 -5.300055635794385E-6 -8.574186283320859E-6 -3.3510955071792936E-5 -2.504118289590709E-5 -5.440129864841379E-5 -6.489832430641298E-5 -2.2901808194830182E-5 -1.516936361978814E-7 2.358326057261301E-7 0.0 -1.3665522684867874E-8 3.3438350749159545E-7 1.358323900160215E-6 -2.879815618961447E-5 -7.76908384708506E-5 -1.6276176196510766E-4 -3.698675401262699E-4 -4.889242371992458E-4 -4.2005876219111655E-4 -1.9598975962623088E-4 -5.6379087923365325E-6 1.9175755610862538E-4 3.899747440602289E-4 1.0414243999708168E-4 2.7459538257777305E-4 4.0641920099960036E-4 9.029777649627863E-5 -5.714173486102817E-5 -4.592734506994658E-6 1.5123827775278993E-6 1.1649875837320637E-7 -3.3728390254175446E-6 -1.2855202998343326E-5 2.9618414874447427E-4 0.0011692728431739608 0.0012901669746695052 -1.1884461912007367E-4 -0.0017031892126268744 -0.001860811122845805 -9.587341186962613E-4 -6.408783940624502E-4 2.0826563144164023E-4 0.0023199901743029784 0.00544567503086248 0.007584626659024895 0.006298634900545379 0.002879052210605468 9.26207315837991E-4 2.6085306023314676E-5 -1.0819671842427722E-5 4.969344780920875E-7 -1.6297897538852834E-5 -2.9439958969593656E-5 0.0013641858730935705 0.004204315243660798 0.003736785535721231 -0.0012655473937022005 -0.006736440417876793 -0.008110518502884249 -0.00834354475089884 -0.009680217066756822 -0.010380040371821176 -0.006220957083712 0.0053543408063622955 0.01769206612844313 0.01878936297892693 0.010586026872933165 0.0034945690330091942 -6.175561377464857E-5 -9.602275760187048E-5 6.452256114825199E-7 -2.3050781096152294E-5 -8.109377374268023E-5 0.0029309148054422777 0.009540106081535386 0.007040437454248935 -0.006388397487304336 -0.018344539089788607 -0.02478236751071508 -0.029716641993832782 -0.03448406988668656 -0.03751853948888482 -0.03390720993295358 -0.017354385505384647 0.007468400497244094 0.023099461419905577 0.01888426786731006 0.005623695661800228 -9.288721314396236E-4 -4.322798738448179E-4 -8.122881166373491E-6 -1.1636144582411252E-4 -3.5608610932732294E-4 0.005878684920653905 0.018283598630992003 0.006879912228685324 -0.02479405601982939 -0.04796085559526866 -0.05919309680306794 -0.06419901315029566 -0.06658586033866133 -0.0668482528341355 -0.06056800736298791 -0.04456343434707322 -0.019795108419890038 0.012430611514705061 0.020719222005804852 0.006026113059969045 -0.004159952592595787 -0.0011268634238655265 -1.643359913105668E-5 -2.984665947619383E-4 -0.0011363935102088386 0.008658108713785709 0.024134646431514473 -0.0013942057664605863 -0.054727517393713294 -0.08827334919703753 -0.09546042088158915 -0.0877289179166858 -0.07973985940271543 -0.0844054811285547 -0.0786784465311646 -0.06883105735719479 -0.05535952304428356 -0.015122349187612684 0.009694999451105 6.034962200567127E-5 -0.008757651755184857 -0.0016801778249053024 3.5391474887897185E-6 -6.234146724307262E-4 -0.0019470612403864804 0.015260969384673749 0.027695411416822052 -0.021929178833974494 -0.09119484860281835 -0.12076754011045295 -0.10051006782877232 -0.06823972332052654 -0.06225870388333781 -0.08693184116721636 -0.09588384895077275 -0.09286473337464815 -0.08922960476975851 -0.047686287851665905 -0.007159883731780488 -0.009743822536426474 -0.012230283340312282 -0.002150084756446364 1.9596407173435058E-5 -9.715263839137167E-4 -0.003304900954865648 0.017347104630426304 0.020651054138359 -0.051204033730654124 -0.11824391445303077 -0.11605294903100741 -0.05867243639365045 -0.016078749358260966 -0.03909998073210143 -0.0986219907087777 -0.11642945378183513 -0.11196174042185839 -0.11150113684537698 -0.06720268989864726 -0.018648174461940524 -0.015009672119161259 -0.012426574167295614 -0.002482660325042511 7.147728048004967E-5 -0.001470155704666235 -0.006535121578474351 0.009153273920195238 2.6972740026473367E-5 -0.07781607316919918 -0.12180613157240136 -0.08062863906633136 -0.011869308464009208 0.0029151962112223652 -0.06198056895656248 -0.13047113895576895 -0.14039292953782045 -0.13188309751640762 -0.11971540152997309 -0.06720990371772502 -0.0226031663291953 -0.01875835011234478 -0.012419843783178477 -0.0026649114805240397 1.4523959368634257E-4 -0.002278857462771269 -0.012129327506686974 -0.006361302976778319 -0.022481538709491426 -0.08666206204484952 -0.10214803926320123 -0.044873112444855805 0.0018288136635008262 -0.020055527684469103 -0.09191983514996356 -0.14405760896184777 -0.1482082941562267 -0.13253232922170458 -0.10247874800469282 -0.04943212581824557 -0.02267551900283712 -0.023205454101395132 -0.013454032737475873 -0.002630189862359768 1.9537707508862536E-4 -0.0032942774293332573 -0.015791567745507315 -0.017810801825455167 -0.03267621095487079 -0.078081249961087 -0.07681877496635307 -0.028830076967931523 -0.012794387753983722 -0.042595389677860196 -0.08500015102404132 -0.11184950097669216 -0.11045607300851755 -0.09415183216467994 -0.06432454110548917 -0.028191343226317063 -0.017597735210858913 -0.02214498133058065 -0.011894640176345048 -0.0021280336250234103 2.652462261795621E-4 -0.0032922157625399845 -0.015466587272024565 -0.026854785954876295 -0.03894983241656393 -0.06629453456994544 -0.06408290264180073 -0.037859596916451445 -0.04597000715284762 -0.06515435105636073 -0.06451373264506757 -0.05943310310982962 -0.056818612483576454 -0.04939073878636556 -0.032030513455058904 -0.012529331270528314 -0.011824070715203507 -0.0168620364035301 -0.007624394274266109 -0.0011925323178204137 1.9813487367215625E-4 -0.0021424670377205427 -0.011600574763920641 -0.02675229765531586 -0.03667599264365569 -0.050853990368946445 -0.056012230028927024 -0.055879630574778696 -0.07187911973154262 -0.07474469088566897 -0.046890437622970856 -0.024099991555282793 -0.0172188215098558 -0.018506926517617185 -0.012633627185197484 -0.004916072944483477 -0.00895352786328652 -0.010558021343718874 -0.0034817940464811656 -3.9570143876132424E-4 6.993279969077498E-5 -8.879870043162784E-4 -0.006591943606521879 -0.022380955063301077 -0.02868958208354247 -0.03844182255228924 -0.050659437840396115 -0.061212748348578455 -0.06822388811065078 -0.06084684429223376 -0.041171818457579855 -0.02499469174138681 -0.016961192882602998 -0.010298644461486883 -0.004834505801301198 -0.003614591953130764 -0.006540762162316753 -0.005956575568651122 -0.0017569639613106837 -5.699527305835026E-5 5.60201313343576E-6 -1.712977006034481E-4 -0.002496009274212561 -0.013852838212837957 -0.02348258529472122 -0.03396780189280868 -0.04379390931930535 -0.0464445479316516 -0.045190351487537805 -0.04225013241474487 -0.03616957442462955 -0.027208196545328897 -0.01758724525746248 -0.010302808793185899 -0.005526995790049871 -0.0043855379812925655 -0.004602177570909701 -0.0025631853943204087 -8.349800943963543E-4 -1.9257120230044977E-4 3.5546491925191367E-7 2.4046354029061556E-5 -7.763017869622078E-4 -0.007531026511361234 -0.01707009901735737 -0.024562649265259424 -0.026851158941259782 -0.023535561875119414 -0.021977597489416238 -0.02370371741636865 -0.023191016357053604 -0.020245240224268993 -0.01500396691415969 -0.010434010107020476 -0.00740986019917288 -0.004380424226663789 -0.002395239200570713 -8.908512076660436E-4 -2.723309353901999E-4 -8.038179016259459E-5 2.0474746356991786E-6 1.1713785937988446E-5 -9.670857151467944E-5 -0.0025612668255464623 -0.008515272704460007 -0.013225781979333232 -0.011111635382513594 -0.005888875147841906 -0.005560091946057103 -0.007285476255769349 -0.007627092789375594 -0.00755547951213551 -0.007501901415493774 -0.00568365983835137 -0.004009139682862291 -0.0022534654844749416 -6.088065587252034E-4 -7.403871974035056E-5 -3.5602302408509694E-5 4.8362858441728765E-6 -7.829120683171371E-8 9.644494337142486E-7 3.5340127315745413E-5 -1.885156331416867E-4 -0.0016734550373727292 -0.0035250686536608396 -0.002386282479340944 -4.752453135739101E-4 -1.3307464729476123E-4 -1.472142635382636E-4 -1.8992577632237351E-4 -4.989807325644117E-4 -0.001110386470606666 -6.655367349228735E-4 -4.3318423900448583E-4 -3.4085871465313917E-4 -9.105357318994311E-5 2.3883074005430546E-5 4.732548060132615E-6 5.017051612008142E-7 0.0 -1.3315509974466464E-7 1.4173800323504922E-6 9.559464843619185E-6 -1.2600448929635472E-4 -1.8440263485806533E-4 -6.021817242980409E-5 1.4657465273041095E-6 -3.711234177040712E-5 1.3035908284224938E-5 4.3236302857906455E-5 2.6346777404528028E-5 -7.395572634307123E-5 -5.082277142617185E-5 -8.90200049824498E-6 -5.747377007473484E-6 -4.730045183934606E-7 -1.3414229027907563E-6 1.1715406489721678E-7 0.0 
4
0.0 0.0 -7.490486544221452E-8 8.694849226833499E-7 1.7240638180901764E-6 -4.6286196916245364E-5 -6.933161019334193E-5 -6.685031437523506E-5 -1.798333569408891E-5 6.641154966075991E-5 2.4687841620417414E-5 -3.7301917299398617E-6 8.638869901988297E-6 1.4957249515499317E-5 2.153876327553446E-5 1.4078802360666965E-5 4.192303428829426E-6 7.154766344556913E-8 -4.820647675703284E-8 0.0 -1.3949789808741004E-8 1.6267226911765741E-7 8.826928249308072E-7 -6.887892954673332E-6 -1.4688819152862389E-5 -1.2119571159690856E-4 -4.002764130702672E-4 -5.824072106854058E-4 -2.6502223503455834E-4 1.0093018873896285E-4 1.6777207300471992E-4 1.3360504203254666E-5 1.3122177502848932E-5 5.502980107928811E-5 4.750259762769089E-6 3.903997058373757E-6 1.660632504734184E-5 1.7377923082404872E-5 2.9196358815358796E-6 7.955048417674341E-7 1.1793351797005176E-7 -1.5814753900297432E-6 5.696020347114016E-6 -7.311096630113625E-6 3.58654888637224E-5 -6.336297820558909E-4 -0.0013352016657766639 -0.0013983556439542961 -8.912932892517244E-4 -2.5776994106791216E-4 6.395727447180578E-4 1.223392610023964E-4 -0.0014249292171896477 -0.0026575139026522093 -0.0030665219415854286 -0.0018141943017819916 -6.030923291667254E-4 -1.7276331086375077E-4 5.508008955628235E-6 -3.936463093944176E-6 5.209274343091112E-7 -2.5983827654756675E-6 -1.7667861123677067E-5 -2.497531684893369E-4 -4.961198889236403E-4 -0.002503056094031228 -0.004353211265615302 -0.004147155678691852 -0.002421716301790035 -4.52739304966825E-4 0.002239375198384952 7.673795402334837E-4 -0.007229734497983893 -0.015968836536783836 -0.01853702440425748 -0.012894423426159164 -0.0052131650159825665 -0.001375605526985682 -2.4741085990335267E-4 -5.932458214374718E-5 7.874103994821804E-7 1.3186490732685936E-5 -2.1006625585219538E-4 -0.0012161265143440642 -0.0028617611778576258 -0.0066663074305670115 -0.010391083804089563 -0.00970703579206161 -0.004883671371458412 0.003478698461469596 0.014226290021805933 0.01108862432123009 -0.011948072036243672 -0.03581741217014522 -0.046379130919125086 -0.03812651817970357 -0.018581910549253868 -0.004902437472498665 -0.001501087349243061 -3.6116819728824974E-4 -1.0191090366973955E-5 -3.554782422707678E-5 -6.502510623670167E-4 -0.002988341622265885 -0.007768829676990952 -0.01415312218999125 -0.020694346228870723 -0.017010817721998493 -0.0030143936297691845 0.013511635309223908 0.030521606561607337 0.025108214067978606 -0.012678559028794514 -0.0531682349398592 -0.07383628113300528 -0.07330487470589944 -0.046045479564800894 -0.01585697463727637 -0.0050916000523174715 -0.0010052231890180798 -2.2206604919477252E-5 -1.545429067170556E-4 -0.001733934517771841 -0.008088120564198142 -0.0168494800311325 -0.02630552810755936 -0.034014649992889806 -0.025738282471661666 -0.0058808978609616895 0.010202216477750988 0.02467795694045575 0.022205969404912297 -0.016546359638994715 -0.06300889366814853 -0.09205470834537861 -0.10361711322536227 -0.07859509406097208 -0.029137641506506162 -0.008744472939063951 -0.001604843665018753 9.895848418392944E-7 -2.662258438197338E-4 -0.004350239842068969 -0.0178030896396191 -0.034055281120707624 -0.049045547865524966 -0.056294442746240465 -0.0414443400835307 -0.024537475548373516 -0.019302781025396405 -7.705678387370501E-4 0.011970038065174608 -0.025278845942389515 -0.07555940908138808 -0.10683735686757014 -0.12312037222960198 -0.09961435655103865 -0.03868545223805565 -0.012188081908850883 -0.0022902709720257924 1.7978216665450443E-5 -3.4541657531097505E-4 -0.007795330331961596 -0.033519937369867595 -0.06151743538248239 -0.08196836859758487 -0.0824132908447322 -0.05991024816512869 -0.05449363225978265 -0.06000529426351345 -0.031579232949622185 -0.008938459267360303 -0.039673528306698354 -0.0824335989493134 -0.10832506950586201 -0.12263615478976983 -0.1011542281197694 -0.040861760496768276 -0.013452475176916808 -0.0026376075097883575 7.407082526047671E-5 -6.913142490920282E-4 -0.012768039050996905 -0.05557334132155986 -0.09790340268009602 -0.12004048311657145 -0.10691516178378867 -0.0802818823778563 -0.08098309093569099 -0.09121021952632316 -0.07238062051328467 -0.042900499942505894 -0.05237243870232445 -0.07758994626057188 -0.09843601746115736 -0.11249319697870094 -0.0918723721108562 -0.0382253358374508 -0.012361109789207857 -0.0029899936420277255 1.4894077285022053E-4 -0.0015462809680847327 -0.018679491015737498 -0.07599490915403624 -0.13406535881868212 -0.15186055245643473 -0.12693588760812097 -0.09796313911190566 -0.09764105521108803 -0.11158547449990407 -0.09406740195424046 -0.056045434208997214 -0.04864745911234093 -0.06319127439676313 -0.08770208865786236 -0.10091289182138165 -0.07386249759843762 -0.027837955075950296 -0.009433121155812383 -0.003283889555441549 1.849337865619702E-4 -0.002592336745622907 -0.021463537451375272 -0.07951833829535725 -0.13605572951559622 -0.15109076705267332 -0.12156835439020626 -0.09026981177683127 -0.08225814223123848 -0.08667157575479113 -0.06218404230265394 -0.029535579344832814 -0.02890921827589696 -0.05286711797556176 -0.07946843326812507 -0.0822834404834439 -0.04961521860986853 -0.015643932595262686 -0.00722075184303873 -0.002622519586286582 2.680325742448098E-4 -0.0028764480847401916 -0.020158344392040266 -0.06825978922296351 -0.11139638761524853 -0.12424008376509704 -0.09907181330163263 -0.06322224059427513 -0.0426738003946619 -0.03543110210064174 -0.021983272308193556 -0.013618209456450432 -0.03122766230971562 -0.06407510579672566 -0.07450972448074446 -0.05531408171439336 -0.020995725695098246 -0.003531279757369452 -0.005481564398759583 -0.001372954554907571 2.0227279853818762E-4 -0.0020032576483234683 -0.013369793160951939 -0.04452551876193914 -0.07016485807529901 -0.07891280702755808 -0.06606231194151654 -0.039327125985591356 -0.023843645687216357 -0.018995511929454804 -0.012002399146631815 -0.02078661015218576 -0.050690480039481546 -0.07225023685374583 -0.06263662250825724 -0.034463865044406114 -0.006690768795438515 0.0013601257233141852 -0.0028773342741429944 -5.594513306127413E-4 7.257825104676508E-5 -0.0010168461343524045 -0.005555555765726674 -0.01746073906691353 -0.027518726089805556 -0.038060057053531667 -0.039223019463517805 -0.03094073100673161 -0.028004676971829116 -0.022677650740629315 -0.016008833973748682 -0.028346453169059465 -0.049937404206427685 -0.055908574066484064 -0.04386893547375852 -0.021282348416034592 -0.0033677076644729326 3.205206927800996E-4 -0.0012050405612393932 -3.1646746058304E-4 5.243991606043407E-6 -3.36645026053426E-4 -0.0011033157200321176 -0.0023453269810751187 -0.002716510412042175 -0.012909205294653432 -0.02273016990943113 -0.024840420182164417 -0.02667081030645786 -0.023021340180089406 -0.016939995512789206 -0.02451697469275218 -0.03517627363976969 -0.03374632496731503 -0.023046490457496762 -0.009725122075876877 -0.0017738802939931528 -5.39404627336464E-4 -8.949968400408623E-4 -2.793259231114514E-4 3.685362829436618E-8 -6.630104489701216E-5 -5.886400070916399E-4 0.002052429488644674 0.004261162269669019 -0.005120621032810153 -0.011869273714255047 -0.01464083794340599 -0.01598873896631913 -0.015056216920960224 -0.012705616433304215 -0.015022737637574245 -0.01787841643372875 -0.016399973975345403 -0.010642932226445143 -0.004101740443434832 -2.723138513964793E-4 3.9102604497082973E-4 -1.288542188530326E-4 -1.1295868851794995E-4 2.082266162291143E-6 -1.257874120676056E-5 -2.105374816191187E-4 8.093313753823776E-4 0.0011714329170258546 -0.0036400606538694513 -0.0063197804717999954 -0.00415194101727077 -0.00457382918314524 -0.004874335860984853 -0.005193074053698338 -0.0055921497366199086 -0.006018444623674988 -0.005089732783267751 -0.003320121091768999 -0.0013218414278579828 6.721366040240688E-5 1.8406633197410834E-4 1.1254520350377872E-5 5.104657960558243E-7 -7.805995617230605E-8 2.299186740316818E-6 1.3621206010146602E-5 -1.939375898327297E-4 -8.436210958603445E-4 -0.001656368455594221 -0.0015274409068700232 -3.7995140799220107E-4 -2.3626527476314446E-4 -2.8027629189745557E-4 -3.751282743359661E-4 -4.6301215754773577E-4 -8.768150786484449E-4 -5.635226925016508E-4 -3.3595727905824386E-4 -2.109479993351266E-4 -3.6941395473444856E-5 -7.572538462691898E-6 9.17362784397497E-7 1.0185363819681032E-6 0.0 -1.321526876077709E-7 3.20751831293981E-6 -5.606990395202973E-6 -1.7529310909139407E-4 -1.247681580021809E-4 -5.9548781490140524E-5 -1.7206403015624973E-5 -3.9389027512380854E-5 9.494440365976319E-6 2.444362525162054E-5 7.619513700645367E-5 3.2098466431471575E-5 -2.3030406094230933E-5 -3.6067955108192506E-6 -1.2842095478283633E-5 -8.246051114671446E-6 -6.722623953793364E-7 1.3037856735516245E-7 0.0 
5
0.0 0.0 -7.624839104788126E-8 8.649746985909972E-7 1.53487035397237E-6 -4.103346974787671E-5 -6.103843667636557E-5 -5.9416151011168754E-5 -2.8376895012798623E-5 -2.3474819888345644E-5 -5.467854635717827E-6 4.597094887212615E-6 1.0361309233078337E-5 -4.409575398230973E-6 -4.593540193148686E-6 1.441549978988085E-5 4.561687274920449E-6 4.9903604806953745E-8 -4.867787018382577E-8 0.0 -1.4166014868215902E-8 1.0640096530220535E-7 8.098963891333904E-7 -7.037521491106884E-7 8.876299452462929E-6 -7.026822047852546E-5 -3.025942151582752E-4 -5.104691098427432E-4 -4.043522696260372E-4 -1.9027381889785976E-4 1.2835089371202216E-5 3.46037150156479E-5 -2.166957394403184E-5 1.9649527130606662E-4 2.2426354115531331E-4 -3.731696696382641E-5 -1.8435029772904215E-6 1.1945585878419196E-5 3.2158069837896145E-6 8.094351082163472E-7 1.208103250831046E-7 -1.2350788185681396E-6 6.717687537112745E-6 -4.2911531690138365E-5 -2.9219708957310903E-4 -0.0011907328195344651 -0.0020719611382804103 -0.002357284716659478 -0.001884562157023569 -9.616153242046565E-4 -5.666062026534887E-4 -1.1268315128246867E-4 -7.306056243580272E-4 -0.002233253415744629 -0.0027616657771613842 -0.002119240570120052 -7.568648477090956E-4 -1.6832589040639552E-4 3.5669399521849863E-6 -4.111846390045988E-6 5.135293777022816E-7 4.983763397173619E-7 -9.597303002668906E-6 -6.008183912212487E-4 -0.0019927669501954488 -0.005026496371466694 -0.007509155315539878 -0.008036631730664266 -0.00728279675145884 -0.007148596552551195 -0.00872970478659427 -0.009238511298790822 -0.008968078308865346 -0.008413443438824907 -0.00862157995530982 -0.006641665878244298 -0.0032834930837324096 -9.010594951143541E-4 -2.819714425242085E-4 -6.297465783014917E-5 6.647925207754931E-7 1.8401594742087575E-5 -1.849385787518613E-4 -0.0019381888057550972 -0.005665262557241552 -0.01090945804016863 -0.016530694459376986 -0.017983967466782082 -0.016890020473505744 -0.01868277210407225 -0.026254988348718967 -0.03313973348852515 -0.02690821643360873 -0.009364613898528974 -5.730688352959604E-4 -0.0030418312210762077 -0.005481646878482051 -0.0028911795962225676 -0.0012271319326883046 -3.1449217675218085E-4 -8.122595026229687E-6 -9.375284188306628E-6 -7.158736245285827E-4 -0.004166043101151264 -0.01061714407751692 -0.019666021885065704 -0.028674709570281988 -0.030408718797119073 -0.026647111309593678 -0.028603629196005564 -0.04342333044997813 -0.057546330619029334 -0.04983693469148625 -0.02324444437133589 -0.001942035957492468 -0.0013419358166933855 -0.009987667629447713 -0.007857204145829471 -0.004346368296612074 -9.872771690171336E-4 -1.676354894421114E-5 -1.2048497180896134E-4 -0.001725723383536815 -0.0080911367209957 -0.01766258062876139 -0.03104604278539883 -0.0425019821077667 -0.04078497777185771 -0.02973635127647411 -0.024835502935013316 -0.04031011739437529 -0.06524986467124844 -0.0699496119919977 -0.05138963073684511 -0.026965069840472596 -0.01473168841145275 -0.021592383975218017 -0.014618001501824225 -0.007438086532290749 -0.0016170698019027346 2.706637496420932E-6 -2.361883970081211E-4 -0.0039702999514866005 -0.016224373116328634 -0.03008478338427523 -0.045049768125103695 -0.05671640921872638 -0.04253321209652335 -0.015327192187765036 -0.002959277578997969 -0.025369348148543247 -0.06443782367931163 -0.0836632357103981 -0.07707264700218146 -0.05651196240082251 -0.03726950603191585 -0.0339631639536578 -0.021799694245747327 -0.010069344127536307 -0.002097743027714369 1.6585323479168905E-5 -3.461002306302857E-4 -0.007107385037060174 -0.02682340018660413 -0.043548270692868186 -0.05628752435888558 -0.057454147218701235 -0.028636182586395623 0.0029972250540131543 0.010113049202065467 -0.028891041403792707 -0.0816411300977152 -0.10056582012344585 -0.09250240439562446 -0.07843348556670938 -0.05839320531485198 -0.04256568531032062 -0.022268975274235832 -0.010928799594500866 -0.0024472434873663677 6.712372967671422E-5 -6.939933477860536E-4 -0.011563079734004836 -0.04172527312125177 -0.06165880190851036 -0.0687012675685506 -0.05613522955667354 -0.02411107536538509 -0.011218636779059848 -0.0200403206536215 -0.06827547633571299 -0.1135319681790245 -0.11763345620079664 -0.10283007793028374 -0.09108963568610101 -0.0719860431404241 -0.0464446017882687 -0.022882316776609943 -0.011555710247566416 -0.0027536405669231494 1.430515177472116E-4 -0.001559745741971299 -0.016590547946344153 -0.05486964015101434 -0.07493002260381786 -0.07592057004730406 -0.05881032576540793 -0.04640974630054849 -0.05631770930430777 -0.07357798110986388 -0.10869211602925628 -0.12763546577243176 -0.11853399232082537 -0.1001751862540939 -0.09100182762225295 -0.07050452443860764 -0.03924029918378516 -0.021768920366009716 -0.012521226428054819 -0.002743524761373445 1.987794322003948E-4 -0.002779304106968695 -0.019457999650090877 -0.05584596842945028 -0.07507949276444847 -0.08001939608863412 -0.07456106679326034 -0.08074048995966257 -0.09160880813884877 -0.10338760598698288 -0.11376217835800423 -0.11098795661385465 -0.0930485265016313 -0.0797696035272032 -0.07338290114625148 -0.04964029707131417 -0.025646902904677055 -0.018232352274367505 -0.010621364449665379 -0.0020413850512915757 2.7214981367875405E-4 -0.0031255747718716303 -0.01821940491646057 -0.04417389249311597 -0.06121613252459374 -0.07784559446197875 -0.08950094411161423 -0.10894076966834204 -0.11581363801787546 -0.10934613964689797 -0.09834494605797023 -0.08149233511204387 -0.0629871667037992 -0.05635113135060702 -0.04647037987955023 -0.026260727018859342 -0.014736084452239579 -0.013190187409093253 -0.006717483407277215 -0.0011490698836622334 2.0396134605704547E-4 -0.0022363678761522345 -0.011922887897474019 -0.025428441207909807 -0.03550514435624761 -0.05798789201845528 -0.08342501451961061 -0.11125433467112439 -0.11447319551405602 -0.09223877595484078 -0.06803137952773725 -0.05220585087552709 -0.04354274498399058 -0.038048947811289056 -0.02950281922015381 -0.01634910002020977 -0.010794646571543755 -0.008395036565875603 -0.003570857392095265 -4.919488547522469E-4 7.364867665913569E-5 -0.0011750443630832116 -0.0049055327623374195 -0.0054303778561359435 -0.0045505609522016755 -0.022101684111219155 -0.05704588982485584 -0.08954633016744788 -0.08725268026581554 -0.06474159988521597 -0.04585503124275602 -0.03725877719184291 -0.03379225722795368 -0.027762790421774423 -0.02030069088237078 -0.011528720090224336 -0.006696459302798454 -0.004284316592086303 -0.00210446052322999 -1.6466099024337077E-4 6.4715910328143295E-6 -5.186334515589906E-4 4.221695473920529E-5 0.0091215699466007 0.018673627315098997 0.011554802821032897 -0.021204912607761094 -0.050037705489648865 -0.04920184485449111 -0.04123003902556184 -0.035076784213495645 -0.0289376780604643 -0.02185158132431986 -0.016167009981104638 -0.012041073687992948 -0.006126693833613922 -0.002586605903499759 -0.001577957005605645 -0.0010911211858895954 -2.0774729519861153E-4 2.457659930951642E-7 -2.364506345287732E-4 0.0012072139969438165 0.011196400590839898 0.025764303695998084 0.030015248489970954 0.005880948453655803 -0.018107947345571692 -0.02240795107053067 -0.022895630174107298 -0.02185772638584748 -0.01882582878497976 -0.013783649075199179 -0.008870864791459727 -0.005373452142960014 -0.0021912681861438778 -9.635515000242788E-4 -7.213715080606222E-4 -3.4190652321371286E-4 -7.357288323595461E-5 1.9925338671269284E-6 -8.268190364466862E-5 4.096645644848728E-4 0.0060602826081455905 0.02014301169246415 0.029408079185827697 0.017193346270734853 2.55008115107408E-4 -0.0051294600752161525 -0.00707855524425203 -0.006676899992618207 -0.006227929343759507 -0.005988131784602443 -0.004198280916240174 -0.0024854248382100977 -0.0011445493619349615 -4.2755290707922693E-4 -1.0471619861241038E-4 -2.768292620475796E-5 4.693354315965792E-6 -7.610209564556272E-8 -6.361871281930353E-7 -8.92323535499649E-5 6.48038148125927E-4 0.004874802859872611 0.010026647648973467 0.0069034621691756205 0.0017746704278048405 2.3491829528841305E-4 -1.6393186642635959E-4 -2.1593711228150888E-4 -4.260609968931791E-4 -8.921081696977586E-4 -5.686771774433021E-4 -4.304905479309865E-4 -3.481659059225187E-4 -9.798384957542764E-5 2.2722970228425677E-5 4.706111164139103E-6 4.6901907273717047E-7 0.0 3.877749574297805E-7 -3.1830395802843293E-6 -1.450060529607323E-5 -1.1916009461408947E-5 2.3497041534459563E-5 6.229893378062622E-5 4.0006114844759383E-5 1.362052623291983E-5 8.024744863427017E-6 1.849891088092348E-5 -2.0597048037713082E-5 -9.278855933364627E-5 -5.7833990986206E-5 -8.368538415246668E-6 -5.903610200892727E-6 -9.601746618674075E-7 -1.2816949667842931E-6 1.1643537855546224E-7 0.0 
6
0.0 0.0 -8.276907381173888E-8 1.1621413853791014E-6 -2.717946616439428E-6 -4.0875143712800575E-5 -6.503309202452609E-5 -7.249863145064487E-5 -3.6317700308274815E-5 -2.8690359585158024E-5 -6.474528590889271E-6 5.044092477280275E-6 9.368051744579286E-6 1.760032778724128E-5 2.5532152294932537E-5 1.474309923789935E-5 4.086718556187522E-6 4.912383553068859E-8 -4.5925501621583065E-8 0.0 8.99134770839359E-8 -1.079050902261983E-6 3.3777242188356954E-7 -4.092824966933879E-6 5.815416218302059E-5 -6.513073743796962E-5 -3.30330095780693E-4 -5.801918107634061E-4 -4.4774684342739905E-4 -2.113202084666738E-4 2.126644897206004E-5 7.874794027830722E-5 8.051238195911789E-5 6.322402943229229E-5 -1.2116540230858997E-5 8.371984392771714E-6 2.0790810977260748E-5 1.782597101878366E-5 3.001256152366072E-6 9.10479852804514E-7 -7.715676732315798E-7 9.641000590981553E-6 -4.08743711214098E-6 -7.597966326116698E-5 -2.845319098644854E-4 -0.0012532693055520019 -0.0023119515475848104 -0.0027437510435133856 -0.0022819079859678123 -0.0013536476900021094 -9.994540494519953E-4 -8.41991553484411E-4 -0.0013801262789681819 -0.002814946916407998 -0.003412454435257045 -0.001921022690594304 -5.944858594480091E-4 -1.6593787855782448E-4 4.919971224417551E-6 -5.529563331360282E-6 -3.277379533087029E-6 3.27748678983584E-5 1.274073529538309E-4 -2.8123051671156973E-4 -0.0019182160053958235 -0.00569750757790124 -0.008878642188685832 -0.009831946446402506 -0.008724954244847824 -0.007409896594861892 -0.009398937327706943 -0.0122973209545698 -0.01637550255182318 -0.020571982074620417 -0.020770706329511265 -0.013911693909707241 -0.005594549450517803 -0.001380312484778742 -2.585231724422602E-4 -6.38949232675568E-5 -4.072668256002969E-6 1.918358388938518E-5 3.44643481801481E-4 -0.001312911501083511 -0.006432623416977361 -0.0141527742614565 -0.020961593540385296 -0.02176433803376156 -0.019971567125624 -0.021642157699107933 -0.024977298867259357 -0.028765054667413043 -0.03462457397069254 -0.044348299650086354 -0.05038340067140153 -0.04107081012442206 -0.020215873605114853 -0.00560227900210745 -0.001494193771059126 -3.483311620438353E-4 6.181047911714572E-5 3.44118048214354E-4 6.003838128442304E-5 -0.004667974834250962 -0.01632381574287163 -0.03105810848227726 -0.04177314935384881 -0.041807769847194885 -0.04062490208036185 -0.04061775844651238 -0.03349638854359837 -0.021091360455715486 -0.014133077899252158 -0.0276945671832813 -0.05854356055027209 -0.0734753779224481 -0.05014949570845945 -0.017915748007824056 -0.005372315843134968 -9.675043645221719E-4 1.3203109015005993E-4 0.0012594406966059965 9.89462048754082E-4 -0.007933874421564933 -0.027116751540981667 -0.049522854054741716 -0.06117343728341751 -0.05949782659753616 -0.049924012921746974 -0.036749954761778204 -0.016312295901448583 0.006780478564241618 0.02914164151557879 0.023205186419483388 -0.030511887182684258 -0.09215669982119859 -0.08916676668764498 -0.037034935899150474 -0.010150509166787194 -0.00144669228165589 2.7989756310313956E-5 0.0024267608941220212 0.003233407859428139 -0.012162451516935447 -0.041517285356209355 -0.06537850798153799 -0.07408566233307619 -0.058317463319138785 -0.030772939173977387 -0.012752981843283322 -0.005611888661593907 8.990786101834439E-4 0.028529479172837463 0.04655351077984143 0.007835654853563133 -0.08694956467046618 -0.12364945568521776 -0.058249690083154955 -0.013791735603859198 -0.0019091670847805626 2.1711264455445053E-5 0.002995935043700516 0.005086488058953683 -0.018262313572167652 -0.05166581907339256 -0.0724730513884901 -0.06680286423337982 -0.030434649322380665 -0.008985189664699862 -0.01560776870464937 -0.041635452335606914 -0.04752490370779569 -0.011589045398524272 0.025704195303597688 0.01911573670481302 -0.06923306923718803 -0.13810684359463551 -0.06971419761135192 -0.014245160558345136 -0.002288246822373681 -1.2775004475797008E-4 0.004808796467120053 0.01126016533386472 -0.017941651843085226 -0.05489298637290901 -0.07167859231046844 -0.054604784502192846 -0.02796703738819126 -0.03557821530994356 -0.06842643767994895 -0.09706634428589075 -0.08307090289594302 -0.04962572632579201 -0.02158066219043083 -0.003901526644739157 -0.05967034667788804 -0.13375497491266589 -0.071774199117044 -0.014524794367939738 -0.0025597871583275525 -5.56251966313269E-4 0.009281262332284606 0.029264191660473834 -0.004512969296663313 -0.05666784253330386 -0.08449848922330415 -0.07997459271689826 -0.07636736516919618 -0.09635073305115742 -0.10917992382692851 -0.10129260072468307 -0.09148047241369761 -0.08451254270074114 -0.05790536806633552 -0.022319655328252603 -0.05923152845780553 -0.11847361963920873 -0.06346575917614869 -0.014305884135976478 -0.002673584784877009 -9.886847653900678E-4 0.014209441977484642 0.04951062523250653 0.009156733466861605 -0.06872860437612917 -0.12097821356079251 -0.12757519815337698 -0.12610756960715816 -0.12113737672240656 -0.10015485650058581 -0.07987135471635542 -0.09005094475833834 -0.09418257990865295 -0.05088362921194008 -0.016169254774791763 -0.05742979811160728 -0.09291215026912372 -0.04703654434027594 -0.01199987049976026 -0.0021551960183380484 -0.0012252610986883904 0.016717044354617797 0.056293024635959074 0.007288154713325305 -0.08680230727120213 -0.15252788312237087 -0.16469945050784607 -0.14957975756484432 -0.1163132282906989 -0.07727923991098566 -0.06391129000839368 -0.0783193972870557 -0.06583486170581228 -0.020421466544779176 -0.012413918107629113 -0.05216283845490679 -0.062157641640995485 -0.029191807377891878 -0.007764246513540154 -0.0012740663605116003 -9.642433760508773E-4 0.012725691743163396 0.04192050195944366 -0.006637647624388268 -0.09079733702538241 -0.1484520195417083 -0.15879380684788483 -0.1374977905655469 -0.09226521656849893 -0.04212799308475367 -0.029524143985603997 -0.032421519730405815 -0.01239948860255192 0.0049208053413939854 -0.015231584935576626 -0.042046627992448904 -0.03681660558953888 -0.01622168755185245 -0.004179373463044725 -5.304639081414635E-4 -3.659292341820977E-4 0.006531062562101603 0.020101821509232492 -0.013835099377897633 -0.07022222388247985 -0.11170537306109346 -0.12238466958990867 -0.10463014337822452 -0.058340860068938065 -0.006898901831069486 0.011084089603844311 0.012990622307586477 0.02100303589430042 0.0070283026817152365 -0.018743149515052338 -0.02968558906626836 -0.019585827962946053 -0.008456510443005426 -0.0023836865373008777 -1.89086178133034E-4 -5.3694919561446524E-5 0.0021162436060700282 0.005395477779203227 -0.011287836151461072 -0.04036133506048115 -0.0655105312512509 -0.07405852593759685 -0.058864229517972926 -0.026376579084874036 0.0035936992283634875 0.018576971119551478 0.019941899418030973 0.01106263804784137 -0.006168156500723435 -0.017038741640416268 -0.01697328272650133 -0.008984910221286632 -0.0036230255450261867 -0.0012631131120803048 -2.672121852121194E-4 4.692528145443978E-6 2.90166120815765E-4 8.845880710532867E-4 -0.006144803641270338 -0.020630056233282297 -0.03390099080817834 -0.035532085171709867 -0.02470373822617307 -0.010517444035485818 9.446723065926988E-5 0.0063763882205539295 0.007747452867524823 4.7049981422561237E-4 -0.006769762666846508 -0.009110972403662609 -0.007388188754507365 -0.0034113757284167452 -0.0012280747367660917 -3.928041168866115E-4 -9.334342255938339E-5 6.482420375101416E-7 -2.3317777374010382E-5 -5.540476627035145E-5 -0.002428614902975037 -0.008366604483376307 -0.013967505351818944 -0.012387185308696362 -0.005352892479361802 -7.188294617285102E-4 0.002564222270646896 0.0030833534837380393 0.00237328928030011 -7.38552298630115E-4 -0.002927888586777007 -0.003574973306376574 -0.0024251946798519216 -7.152261942731899E-4 -8.906812009027188E-5 -3.0346685412692766E-5 5.835421061045496E-6 -1.0584443991694397E-8 1.1524887480486936E-6 8.678383454708298E-6 -1.6417992860874922E-4 -0.001384535159234933 -0.0036008429073323615 -0.0027389606903104107 -6.266420636745164E-4 -7.023598289491011E-5 0.0011719635150976029 0.0016176761677330798 5.249675180582904E-4 -6.700702377916979E-4 -7.03624566277422E-4 -4.587299989397282E-4 -3.513553331529016E-4 -9.48328211424194E-5 2.9180063302829133E-5 5.390049319960049E-6 5.90135949930311E-7 0.0 -1.6124306725084742E-7 6.545837565402159E-7 8.401670978627628E-6 8.651949193994211E-5 -4.9894878354011785E-5 -1.0162420152638056E-4 -3.2632734773472903E-6 -7.385755762677037E-5 -1.4293072723003586E-4 -1.9233922095671473E-4 -1.7685660221865583E-4 -1.6057670591664084E-4 -7.482862768596616E-5 -1.3833135744253655E-5 -3.506793922144604E-6 -2.1395035199879593E-7 -1.6415439720316984E-6 1.388856219853255E-7 0.0 
7
0.0 0.0 -7.948244011537526E-8 1.3367892956666406E-7 -1.8856836667982765E-6 1.464014689103945E-4 1.9740181171939378E-4 5.134714650899947E-5 -5.066850199546618E-6 -2.934307575828353E-5 -9.574959434175938E-6 3.9808505171114435E-6 6.858923707318032E-6 2.6685858970813013E-6 1.7090646366174343E-5 1.425156941310785E-5 4.108025471097041E-6 6.137424459310886E-8 -4.6493549299778854E-8 0.0 -1.3139729186076722E-8 9.82947028212847E-8 8.604278068673674E-7 -2.685943753178959E-6 -1.2792830239167807E-5 2.880236443475459E-4 9.652122038535022E-4 0.0012612690912593661 9.60215722455797E-4 2.0455405242131934E-4 -5.622432465282746E-5 1.472642608416971E-5 4.2376045719014744E-5 1.8754548038955407E-4 5.265485641149675E-5 -3.091054285216463E-6 8.382259293896545E-6 8.30583858240982E-6 -8.546212095021722E-9 1.1641293346386957E-7 1.1206461293196547E-7 -1.1471533645703573E-6 6.8183500409595035E-6 -5.570145407730957E-5 -2.9973794291253956E-4 9.228190378359223E-4 0.003781551507617773 0.006325784503131525 0.005189761148533468 0.0021533916715251672 7.336628095692097E-4 2.3984254759126762E-4 -6.468611771940062E-4 -0.0021858163944817625 -0.002935456552492458 -0.0017686824316871623 -5.597879250498796E-4 -1.9240476417960766E-4 -7.604474489136673E-5 -2.614088501767602E-5 4.810886025255422E-7 5.473309128416928E-7 -1.5636202804439753E-5 -5.724549595785405E-4 -0.001218440273713341 0.003389867803038988 0.011517856637194249 0.014744276104511334 0.009027900729679864 0.002016491436096486 -0.0038643606459739482 -0.007843390106847755 -0.012290617797277085 -0.01742895915319171 -0.01850102592046638 -0.012470620648586455 -0.0045989402395494264 -3.9129020142442773E-4 4.7740128353516466E-4 1.271964997373054E-4 6.435345652788611E-7 1.6913921873447014E-5 -1.5493669661287922E-4 -0.0020457325581068565 -0.003887884480985531 0.005509746073552803 0.021206139055148163 0.02076815270724772 0.004170900758436196 -0.01124062206751297 -0.024283085670520996 -0.03123852132409798 -0.03771549151548614 -0.044751078403337266 -0.047376862241523154 -0.0369039376525583 -0.0168923999705324 -6.093110950050936E-4 0.004333801829508706 0.0012737221995778975 -8.682510505987045E-6 -6.285000161202498E-6 -6.236196752827821E-4 -0.005397007501122779 -0.01117216458246277 0.0027549368416319516 0.02788031583263794 0.022746222717571075 -0.010041619712641187 -0.03925666726989732 -0.05729576815838643 -0.061248336624840014 -0.06046748919233049 -0.06628518713224489 -0.07489660261433055 -0.0709530655001551 -0.038911212228153275 0.002978102385655673 0.015372316099604273 0.003600376609958482 -1.8196944152170786E-5 -9.423759838083609E-5 -0.0016834747983733524 -0.011342623305986713 -0.025904197628143527 -0.010135031734297846 0.020440470560635266 0.004411390425274145 -0.040527502532911985 -0.07569241589065401 -0.0940623071204613 -0.08803697892613241 -0.07387383187942259 -0.07649550435645122 -0.09157878331101574 -0.09338460514158484 -0.05632131641527478 0.008092078745996961 0.025566817343750686 0.005475728155154964 1.6483830024376985E-6 -1.6447281197244691E-4 -0.003932074981337399 -0.023184055004117278 -0.04961038571690615 -0.02967009950635782 6.937453478045447E-4 -0.024406886634241277 -0.07136875396836301 -0.10124579180552544 -0.11509910214591744 -0.10296824863413448 -0.08530356337949484 -0.08570438339011272 -0.09586397834471913 -0.09560165636329271 -0.06105261940817444 0.00854825608316541 0.03108338266795294 0.007423206545663667 1.6312960749965125E-5 -1.9794119501052648E-4 -0.007287326618934374 -0.04001947235217248 -0.0772231091416838 -0.052084867487089535 -0.014902953548039036 -0.03585228171545327 -0.07459484672586388 -0.10160264784945428 -0.12186634512849225 -0.11860552310541861 -0.09540070567385786 -0.07994286558617522 -0.07849089173171689 -0.0806186794631819 -0.06256825317746892 0.0019662289421963335 0.028076038472780077 0.007920729363437871 6.46530201092487E-5 -4.691885709471278E-4 -0.011851073272552862 -0.06037023237737003 -0.10681761989791691 -0.07236637355235909 -0.018972103878671695 -0.031168685661394004 -0.07080150210298777 -0.11225719931238184 -0.1494174885171183 -0.14136874101105465 -0.0907508712414665 -0.055762594912035154 -0.05793240987788285 -0.07625433463351079 -0.06536317653701412 -0.0024555161086906906 0.02641442665242617 0.008233051651799843 1.3104320924720782E-4 -0.0011911105140110742 -0.017438187795122767 -0.07910072637857207 -0.13154774705947378 -0.08111900995419571 -0.012911506913907089 -0.0318335079909538 -0.08251194488819302 -0.1307714316820213 -0.1513310175566835 -0.11287420402719626 -0.051520566421074526 -0.033250419489005686 -0.05745326016054877 -0.08031428184001004 -0.0592034247856305 -3.060636631396613E-4 0.02421171904546517 0.007138152522738707 1.7838657769239782E-4 -0.0022351771002983058 -0.02049503127001286 -0.08461707281988057 -0.1367498450120461 -0.07744137651631824 -0.01088121638872985 -0.02890341732312357 -0.07130759819163648 -0.09872217626806193 -0.0907563751398141 -0.052331832539624035 -0.02783400586933614 -0.044605867248017295 -0.07518028362018643 -0.08088970725866247 -0.04857071378315529 -0.002011062284888086 0.016332172775392853 0.005506133048454817 2.499322696199032E-4 -0.002478341928607526 -0.018951008121203563 -0.07717862261858992 -0.12536930962732967 -0.07396804723445721 -0.017275725373721167 -0.01720990728058721 -0.03460984070592604 -0.04334860045939204 -0.03935973260750377 -0.03475191860394362 -0.05142460374418188 -0.07711654502290459 -0.09084253710728621 -0.07694343528121927 -0.04411519170911616 -0.009235938124246768 0.005555254126513064 0.0026805643205018064 1.8745604054928378E-4 -0.0016498808686519712 -0.012855167270094956 -0.058271922647729 -0.10243674891245533 -0.06780645716180277 -0.022049976786988064 -0.008221412772850233 -0.00859030158385848 -0.015596248226958419 -0.027608344713330603 -0.045447814456958356 -0.06931850408625152 -0.08507257429551243 -0.0824197135173159 -0.059282129817809545 -0.031217280947397768 -0.010166639543557714 -5.974001876956981E-4 4.235874276417935E-4 6.852925306078539E-5 -6.96482091393929E-4 -0.00649349580655074 -0.035668790143523 -0.0697495466290823 -0.054852633353101136 -0.022793303542875155 -0.008345444613132184 -0.008051868426971587 -0.01855606414229022 -0.03375510098000292 -0.04697570330068358 -0.06295217368643063 -0.06438093834567879 -0.05360332725149643 -0.033962655509134555 -0.016000216571327937 -0.0061600727938432905 -0.0011699685646577628 7.253091528382205E-5 6.103200330295565E-6 -1.4697201131442107E-4 -0.002142033494067445 -0.0163145152484341 -0.03639564925618631 -0.03764168978271039 -0.02397150153253307 -0.014428716869636348 -0.014852051555330103 -0.0232829264388639 -0.029932397320858097 -0.034697300170766505 -0.03987142624529658 -0.03662382380026548 -0.027215091548764114 -0.015151517381852336 -0.0067985922326724985 -0.002582403354776523 -2.9154790477770314E-4 3.010163054343094E-4 3.541881421076548E-7 2.054650239951734E-5 -6.192017258101143E-4 -0.007379679527409821 -0.018494091089399364 -0.02414737471756089 -0.019013116907583102 -0.012411620476666461 -0.013090211046800956 -0.0172690550814911 -0.01836399575534602 -0.01821853959641268 -0.019209686658585624 -0.016961449098158866 -0.011855212961855342 -0.006280591401414734 -0.002729566771735602 -0.0010508909081517529 -1.1589051100180351E-4 1.0751756184983302E-4 1.8907613050965735E-6 9.485240752983875E-6 -5.890670168347863E-5 -0.0023800796852092737 -0.008143511616773302 -0.012638215118139558 -0.009998738615768459 -0.0045938664762666965 -0.0047687771060238105 -0.006706967832677567 -0.00606979309280372 -0.006042968075036174 -0.0065472781345104186 -0.004819235039064973 -0.0034713421278111424 -0.0019145812497896992 -5.746405193355862E-4 -7.295736534528205E-5 -2.0063225172211488E-5 -2.6970305715717496E-6 -7.274858251697314E-8 9.64399152749363E-7 3.0937345834353754E-5 -1.6654192891107342E-4 -0.0015997244155341725 -0.0034679434874871056 -0.002449470687363132 -6.140044024390084E-4 -2.306126401676398E-4 -2.0336633305921976E-4 -3.5425638817440536E-6 -3.9221122377520323E-4 -9.440353785557912E-4 -5.353517139640209E-4 -3.019899291678089E-4 -2.851749177610029E-4 -8.116220019806243E-5 2.3768673571007178E-5 1.8050683087781902E-6 -6.832841891491772E-7 0.0 -1.257589935781855E-7 1.1877132291597262E-6 1.1030716906461341E-5 -1.2610771278373677E-4 -2.0442127196644005E-4 -8.250836786680474E-5 1.080901050922453E-6 -3.7293459890823215E-5 1.3694971177177372E-5 -3.866965065016941E-6 -2.216356591032587E-5 -8.09922055793418E-5 -5.105829957162034E-5 -4.449576090656663E-6 -4.989755735086068E-6 -1.4805150393369966E-6 -1.4244421948650974E-6 1.3197449414860858E-7 0.0 
8
0.0 0.0 -9.684786214926132E-8 1.0657718173054767E-6 1.83095841226157E-6 -4.390972791510272E-5 -6.744617268565498E-5 -6.314231643289185E-5 -2.7515544055675623E-5 -2.470878523270491E-5 -5.993768787746188E-6 4.691265877909836E-6 9.246031190718322E-6 1.6843994241012797E-5 2.5263958024200987E-5 1.6670143570387375E-5 4.918113164952968E-6 6.46741558191332E-8 -5.503655755414782E-8 0.0 -1.4365089205782866E-8 1.0518258702423161E-7 1.0380195045714176E-6 -2.3408318673678916E-6 6.172188989826198E-6 -7.416201091290122E-5 -3.1951305365727475E-4 -5.406720629423055E-4 -4.303011514939874E-4 -2.0167786397262122E-4 2.0005784606751168E-5 7.188466184995482E-5 6.654071141456954E-5 5.3018249474924754E-5 -3.120579521832767E-5 -2.4432980279445344E-5 1.4047812802325114E-5 2.1234698082555703E-5 3.5099390740631558E-6 9.942753929975103E-7 1.2185281842097988E-7 -1.1896913155512352E-6 6.605092512721045E-6 -4.7418315068384996E-5 -2.8279997818248415E-4 -0.0012211975156677642 -0.0021751274362653665 -0.002435787250974266 -0.0018695472963630748 -9.8487979089633E-4 -6.752317591910396E-4 -5.567150381968998E-4 -0.0011704711591194058 -0.0027968631309927675 -0.003634452991800494 -0.002372427467785582 -9.78649771308105E-4 -2.7238176734628637E-4 9.6111459272684E-6 -6.0318054267302716E-6 5.287728158431771E-7 2.8947734378384685E-7 -5.657182497443523E-6 -6.238368849408694E-4 -0.002170283038996111 -0.005519025196152484 -0.007409774870809993 -0.006511177879263525 -0.005702409912655816 -0.006817991336084461 -0.009708149191965795 -0.012198752643842674 -0.015699835584041134 -0.018780789095489053 -0.01773095713087514 -0.010985246840966686 -0.003981798337292803 -0.0013371545008696514 -3.231128383658214E-4 -6.915950383532652E-5 7.401411551123393E-7 1.7954230114834944E-5 -1.5841238498880313E-4 -0.0021937731098586348 -0.007178073607605053 -0.012423088495530239 -0.014864241625410227 -0.014066505046626099 -0.017132960138226534 -0.024913354010006397 -0.034167460323573776 -0.03998158757737891 -0.041511388543473034 -0.04044220407989788 -0.033699780867483535 -0.01819734950565977 -0.004117540420276782 -0.001178961729810848 -0.0019446658686825466 -3.69910407960128E-4 -9.201851641469605E-6 -1.0596821517834086E-5 -6.235394625986552E-4 -0.005756940913403211 -0.01563559232789283 -0.020000496520923207 -0.024284506132361466 -0.029445771811527806 -0.04091869524535714 -0.057007785789765265 -0.06951597865826885 -0.07057298432395923 -0.05428499940353224 -0.035640428369046025 -0.027996857568396136 -0.022284471136283825 -0.00834759510528298 -0.0020897318566887833 -0.0064052068033399745 -0.001063898538704384 -1.913916179142346E-5 -1.0552845200849027E-4 -0.0018124824147373612 -0.011994365637099056 -0.023676392354469496 -0.025451712603259024 -0.03342898860992955 -0.04811849297284431 -0.06441375160414745 -0.08291144612184842 -0.09461002359533574 -0.08364710755234009 -0.03763745036058619 -0.004856252040131546 -0.013821993139261024 -0.029708059529973095 -0.017544485290268096 -0.0052660443949736355 -0.011663880268459876 -0.0016718142309311238 3.1515789544719707E-6 -1.8684421913213011E-4 -0.004661250892549777 -0.02195704768094329 -0.029589607174881166 -0.029323039085327466 -0.04113324561422855 -0.05143874136970714 -0.05741862472539664 -0.07033575604295532 -0.08108235840883946 -0.056150708308153906 -0.0022007313463205834 0.0041724170594074775 -0.03366292345783213 -0.052237016723997824 -0.022783962479682243 -0.00792761816177232 -0.015854721578035556 -0.002200338633424154 2.0114218213769863E-5 -2.7615035514862076E-4 -0.009134369768081642 -0.030579176170965876 -0.028867659986260147 -0.03665417315917297 -0.05896789126532455 -0.05090861619010153 -0.02558082446826073 -0.019035458342020008 -0.02875078299356109 -0.021465289392670443 -0.00827738495733831 -0.03773193986725404 -0.08443848211240243 -0.07971941944826305 -0.02064220752704929 -0.0046841249868999554 -0.01589450633946391 -0.00258482195588623 7.477947420152296E-5 -7.232960094510822E-4 -0.014383191370412156 -0.03760660720902651 -0.0286163123826769 -0.056292447308877294 -0.08441310891685591 -0.06092873412642235 -0.02589025661537231 -0.013034658580976804 -0.02493037983564032 -0.03892369118841605 -0.055626029893588 -0.0871599829786299 -0.11584300009043183 -0.08780444936633781 -0.02171984215730533 -0.0031557030380974516 -0.015169776773757162 -0.002847559033460097 1.5592179786207963E-4 -0.001721854611895186 -0.020475838825784652 -0.03929256559213847 -0.030759326684564846 -0.08095576642753283 -0.10793698400927756 -0.089384091492193 -0.06533450846399289 -0.04981992587435639 -0.05315418385689616 -0.06965405264384687 -0.0852728303131029 -0.100454502095057 -0.11264168025451927 -0.08332509105878798 -0.03023960227053153 -0.006709059573950033 -0.013494861191663873 -0.00292458236352524 2.1097261886465714E-4 -0.0031406456067822187 -0.023135599151975682 -0.03274580044978524 -0.03225661876169504 -0.09376140830512407 -0.12058739822759956 -0.10048189986677102 -0.0681860068085644 -0.05531065632936815 -0.07088102653272903 -0.08177633859870478 -0.08183247550629034 -0.08606161453603453 -0.09280788374184429 -0.06697027280921347 -0.02357057411990814 -0.0060816582841825275 -0.01134927595579669 -0.002264418815910375 2.895083219352012E-4 -0.003419056531647509 -0.021322715215159837 -0.026302366094199944 -0.02594754549831996 -0.08826931944315788 -0.11217280861382659 -0.08446496207501782 -0.05066965627571277 -0.06554527526159595 -0.10201280369274433 -0.10124047653517994 -0.08275931003521671 -0.07857319541105787 -0.07014267873556244 -0.037963912634841175 -0.009385612450000571 -0.005491796764525003 -0.007399018549321447 -0.0012938146163323984 2.178977738381473E-4 -0.002311219983403031 -0.014856359690369447 -0.021918019295240482 -0.021770258618697875 -0.06394460694008448 -0.07972245976663718 -0.05037816362510251 -0.03562659879072245 -0.07049522349909869 -0.10053796782193268 -0.09699425079715022 -0.08350318222263774 -0.07119077248962251 -0.05115120422097044 -0.023719385323568615 -0.007582893364389789 -0.005564890314706369 -0.0037221978539187218 -5.217098170989688E-4 7.779270020775776E-5 -0.001007763077804039 -0.0081440856711135 -0.015083621764602071 -0.011513108601561265 -0.03198172380441914 -0.03615647942393224 -0.017688086951926425 -0.027184970094314084 -0.05531103788444433 -0.0715749067433627 -0.07334587152840544 -0.06875473687001968 -0.05494173875164442 -0.03701524739361872 -0.018174905661896917 -0.0069705671312266715 -0.00385609535018225 -0.0019686610209753283 -1.9171102584332694E-4 4.75145086893366E-6 -2.3507293895538628E-4 -0.003068503920297801 -0.008022180062996967 -0.003187837134052026 -0.006113582765584364 -0.0031709688203425566 -0.002376642606691878 -0.019475047047077275 -0.03452795065572541 -0.0438835551292274 -0.04497771292662631 -0.04071133802448253 -0.03186388871030758 -0.020407403600297375 -0.009629427239761021 -0.0033971092009782216 -0.0019222627839159624 -0.001134953176716436 -1.9459685156952337E-4 2.6667794794428924E-7 1.7881656806833156E-6 -0.0010266854286596458 -0.0048061233825755795 -0.0032574576725962496 -5.873074081065499E-4 0.0057811849657652264 0.001588144208286505 -0.011687054505107078 -0.019117025325288525 -0.02284070666590522 -0.022886692770812896 -0.019978683441070056 -0.014801132089999686 -0.00943235004710217 -0.0037998490492575183 -0.0014982931376054656 -9.055144251226176E-4 -3.38398393590245E-4 -5.725011998153433E-5 2.615333663002813E-6 4.0976786216299E-6 -1.7793363165399077E-4 -0.00181183320433342 -0.0034006625612647257 -0.0027028934589374215 0.0021756799082993474 0.0016932379779514913 -0.0025766598008104998 -0.006274170827101114 -0.0068551685106122045 -0.00680551205010561 -0.006888882594924161 -0.004929431322627221 -0.0032187614453090133 -0.001571136201747945 -5.178372133824009E-4 -1.0652081243884748E-4 -2.9561343001944356E-5 6.948019548803035E-6 -9.828190767455813E-8 1.5353390370047175E-6 1.6440503123043212E-5 -9.987934369460992E-5 -7.245150462701075E-4 -0.001710002067978214 -0.001020918297494549 2.6820195937680215E-4 3.7684125680896715E-4 6.172409895481692E-6 -2.7889519138143216E-4 -6.097853346735444E-4 -0.0011792542057438606 -6.991930310832358E-4 -4.4156121827125733E-4 -3.674793052826299E-4 -1.0050126547078086E-4 2.547372826755159E-5 4.632927601147917E-6 1.6620113370900668E-7 0.0 -1.5223768740648885E-7 -1.8882306165433603E-6 2.651203451583288E-5 1.6847984909453624E-4 2.6200971740281706E-4 -1.1515560777405242E-5 -6.979548731760739E-5 4.932989885109615E-5 6.451977815686811E-5 1.4191904081368333E-5 -7.386963552152492E-6 -8.50225718930984E-5 -5.593847590242041E-5 -7.297750863376692E-6 -5.118988331228781E-6 -5.593581824274544E-7 -1.4654503226768494E-6 1.2775246555927413E-7 0.0 
9
0.0 0.0 -8.075067005053894E-8 9.530748173778305E-7 1.842220200600985E-6 -5.3074928243629456E-5 -7.661457096546647E-5 -6.278403145255025E-5 -3.204539041036778E-5 -2.867971599298382E-5 -6.721483119741534E-6 4.929491418359026E-6 3.4014768403139504E-6 9.28874194613523E-6 2.2499777039136125E-5 1.4271150407812018E-5 4.389954894804953E-6 8.349792520340217E-8 -5.0949538412623426E-8 0.0 -1.3860936055544196E-8 1.0508788665481157E-7 8.579204890511673E-7 -1.2881103476039018E-6 8.344425092659154E-6 -9.259668107551499E-5 -3.624291959573937E-4 -5.784065852220797E-4 -4.9044361975462E-4 -2.874791584560263E-4 -6.061131630158612E-5 2.77669032553479E-5 1.1392500842620356E-4 1.2085171102254459E-4 -1.1260201287750372E-5 -1.52593558543398E-6 1.5398012398033884E-5 1.6178034483779886E-5 -3.936345623163295E-6 -2.7126800550228666E-6 1.1773750055119384E-7 -1.2220050493118927E-6 6.717098658471261E-6 -4.1350969049449824E-5 -2.7194117738400185E-4 -0.001207005296062139 -0.002259342032936053 -0.0028068041279830716 -0.0021960550263614032 -3.8229787173985833E-4 4.472333635581944E-5 -3.4548165353909537E-4 -8.530637931271241E-4 -0.0020641855029616164 -0.0027668411175336034 -0.0017781362495482695 -6.290614145585566E-4 -2.3383471940549257E-4 2.9815247809523564E-5 3.739605925074669E-5 5.104083996676542E-7 4.528503295481515E-7 -1.1569994663332309E-5 -5.632009957936387E-4 -0.0019689629898534777 -0.005622145261889117 -0.008530773605345644 -0.007189041346770734 -0.003705976437633567 -0.001653775602176227 -0.003564321118345269 -0.008280156146389404 -0.013926771570556192 -0.01801390080563843 -0.018524641409628936 -0.012783372074994987 -0.00527400928935043 -9.036057247934983E-4 3.802806173041222E-4 7.910795758553822E-5 7.204493681967423E-7 1.707954064621694E-5 -1.4711392074271592E-4 -0.00201232339500119 -0.006825884834628013 -0.013710122099546435 -0.017326859988195848 -0.01182162353332493 -0.004669996033906261 -0.004834390475965683 -0.01308473727668472 -0.024953057858376915 -0.036365021694689706 -0.04446818451410542 -0.047439954839236985 -0.037836757511840936 -0.01841634295061972 -0.0028552540036898694 6.850968285385078E-4 -1.6978479060834528E-4 -9.19457732220399E-6 -7.614746104112498E-6 -5.979614731345024E-4 -0.005603323054415159 -0.01709617645821418 -0.027963444230293562 -0.029940490484843298 -0.01799092962311068 -0.0036517139637199823 -0.0018459515049163303 -0.014584830493757722 -0.03355771940654355 -0.051630797801139806 -0.06403098660966014 -0.07517353279573416 -0.0726980743678652 -0.04295615549186403 -0.007994029226171567 0.001169029373969567 -4.895770269553853E-4 -1.9837135214133496E-5 -9.771396115880247E-5 -0.0016613057437515368 -0.012185331087569477 -0.03239892198893516 -0.046177955492294975 -0.039685730169097384 -0.015177727418679652 -6.318690466139074E-4 -0.006689264855628522 -0.01940953398185414 -0.03342285932158301 -0.05271096843566587 -0.07205680781470852 -0.0937232934525265 -0.10146328166056671 -0.07153553182556598 -0.015645362627197262 0.0039043233107612075 -4.985715214176959E-4 1.30334898555589E-6 -1.8511343469309463E-4 -0.003999187727595702 -0.02457463161099451 -0.05363465909028506 -0.05607318790342628 -0.03115013550152405 -0.013515101715791893 -0.026133806020067592 -0.037674333008487104 -0.030983069161338868 -0.03227379924908423 -0.05336107275195535 -0.08124525179943025 -0.10698663602915907 -0.1191894004703121 -0.09199342465752024 -0.017421852123019426 0.008463079281163329 -0.0011263727190131303 1.6316008756079603E-5 -2.4492199636197393E-4 -0.007579841084536656 -0.040942695383259974 -0.0710681708925732 -0.04799372298206977 -0.02468936909320048 -0.04117694728590975 -0.06788887926168093 -0.06318666287603647 -0.0432101122660076 -0.048522103142755825 -0.06815488703347215 -0.08844911902877278 -0.10878268827656697 -0.11767138369854062 -0.09057232771073842 -0.014984341076865509 0.011576869757659697 -0.0013918246984663657 6.880609434935083E-5 -5.55382623285365E-4 -0.012468371840155512 -0.06222876307316612 -0.08365531154136735 -0.03674673156046739 -0.039955896667769594 -0.07492320566266394 -0.08676110288071125 -0.07581258898710116 -0.06899372953514157 -0.08306155378046663 -0.08490636018454296 -0.08710619422487076 -0.09800126619486868 -0.10679264925491729 -0.08409285742955667 -0.017160873949473486 0.009800862039742514 -0.0013949380852576214 1.4312626325653223E-4 -0.0013608730127027764 -0.018496244888015555 -0.08282178986140068 -0.08958377927976945 -0.031903448772143045 -0.05917049604842765 -0.09291480126605511 -0.0932771625671969 -0.08385929387635069 -0.0838664749101408 -0.09027225850702907 -0.07220191751459391 -0.06749449023443882 -0.0863095809760387 -0.09997442353168538 -0.07522787241180948 -0.015102002335583977 0.006931942439597743 -0.0012547695827592016 1.941731067978899E-4 -0.002516203538655791 -0.02193336869777252 -0.08851470198255819 -0.08987421270319394 -0.03526943604907272 -0.06699926756663596 -0.08866853284363763 -0.07305232819503635 -0.05704950255834612 -0.05430905340054223 -0.046256023065788535 -0.04058878119810664 -0.05782729260318745 -0.08517445673916585 -0.0888677244121617 -0.05403540199242819 -0.0031089521760856624 0.007636379909207514 -0.0015437842045009811 2.7249381667315516E-4 -0.002763315599199638 -0.020455531933189636 -0.08043968410735172 -0.08894283805198833 -0.05054525775640275 -0.062431347738374596 -0.05973207329772583 -0.03179779193725451 -0.020419704699997827 -0.027127783837297758 -0.03672874488235227 -0.05019229619358623 -0.0716737078151532 -0.08219748087402347 -0.06349195519605416 -0.026742327098673777 0.008456206631186236 0.010915037298398171 -4.3449547841654436E-4 2.0236153666786642E-4 -0.0018197326027385992 -0.013833751303880301 -0.061127910405724024 -0.08224380541172119 -0.06378098053436931 -0.055849636352943724 -0.03539735344572541 -0.01574188099959567 -0.01700036506825827 -0.03702102902942251 -0.05978712032258699 -0.07156385798087585 -0.07538122100102553 -0.06521991771850917 -0.03834573717131594 -0.00981195629071434 0.010008253778578788 0.007850690224581784 3.3734949795755185E-4 7.237922730709286E-5 -7.657352716937407E-4 -0.006967570358941788 -0.037515395575552 -0.06227528102132899 -0.061777204298924165 -0.05559058490218706 -0.03872255838025215 -0.024574173972668725 -0.031092584750774595 -0.04828309358691123 -0.06193336677435465 -0.06682250185897017 -0.05943906923466481 -0.045113312283304785 -0.022352417830417214 -0.00212150286645669 0.007794376563738127 0.005260384288924163 3.834230368685284E-4 5.22348236683201E-6 -1.6178830459198125E-4 -0.00227628384543058 -0.01735995031871071 -0.03858001143206356 -0.049558839278769994 -0.04782385477246661 -0.03475492532183759 -0.02786602003315389 -0.03289996685680803 -0.03911750396093091 -0.04321459545142547 -0.043363734609294206 -0.03705222461315961 -0.02586994946595536 -0.012073786656278236 -0.0016965074819518733 0.0040736390606429165 0.0026924708482660873 3.1221987005542944E-6 6.395173182679592E-8 2.2000194971766728E-5 -6.558005025899164E-4 -0.007884789453585206 -0.021066911209521245 -0.03082118890307388 -0.02920044902955796 -0.02040990298910153 -0.01824443550582341 -0.021123091157697945 -0.022832241870027463 -0.02311439872295152 -0.021133966878247992 -0.016720406289370042 -0.010769458384874237 -0.005164568966194471 -0.0013007890739053238 0.0011709757826981152 6.780653395950741E-4 -1.2061542458256504E-6 2.0514734829790027E-6 1.047152685205126E-5 -6.625992782728354E-5 -0.0025490015484212402 -0.00861963586959346 -0.013260394060936952 -0.011047314509773566 -0.00545672238863377 -0.004921338019316377 -0.006854763640806923 -0.007368186107810631 -0.0075647092360765 -0.007473561411020506 -0.005122069110778422 -0.0029633172947047667 -0.001409890430863919 -3.3583354669807554E-4 1.1431450444839803E-4 7.332573707026412E-5 -5.446810399405446E-6 -7.710073513604313E-8 9.848342153697828E-7 3.2874366179947764E-5 -1.7490437090365916E-4 -0.0016608769742750779 -0.0035395709895759925 -0.0024146562226673644 -5.203212195754127E-4 -1.920697651405663E-4 -5.2181428315997315E-5 1.4499388016185005E-5 -3.8378677266696085E-4 -0.0010525849710771528 -5.807126003584356E-4 -3.3377138698970646E-4 -3.125501242841534E-4 -1.0299935566731872E-4 -2.3787445331643873E-6 -7.952125179623853E-6 1.7299668359692593E-8 0.0 -1.3157478392281367E-7 1.3097415228471217E-6 1.1289172971308478E-5 -1.3883218172768658E-4 -2.2256475651117122E-4 -8.719622643031068E-5 -1.490718541599746E-7 -4.175602855619847E-5 2.2017281583300686E-5 4.434123520900581E-5 1.4228071150248702E-5 -8.3910258057935E-5 -5.333166580175045E-5 -4.0673810904706005E-6 -4.254248999575845E-6 -6.785892610246863E-7 -1.4219463950471644E-6 1.246959138347725E-7 0.0 
10
0.0 0.0 -7.537739275792366E-8 8.434624629425993E-7 1.7714208201547042E-6 -4.027856459023258E-5 -6.477443082451455E-5 -7.46214286793248E-5 -3.954266961663962E-5 -3.325130520498471E-5 -6.781954693145011E-6 5.881652001664606E-6 1.1365408172071299E-5 2.033984818253902E-5 2.9611314269314956E-5 1.6655749943497208E-5 4.893247995992508E-6 4.959113069187714E-8 -5.3747827996298265E-8 0.0 -1.7053521745477778E-8 1.2295128758234265E-7 8.701116462971857E-7 9.312944864688871E-7 9.258902995039804E-6 -1.0207802309554638E-4 -3.634590140844335E-4 -6.28869153033847E-4 -5.169989035138492E-4 -2.1008473954198015E-4 -8.303401899062516E-5 -1.3674818333286436E-4 -2.660096827784578E-4 -3.2891201196933985E-4 -3.332227028356556E-4 -1.456962003170693E-4 -2.0059457948056194E-5 1.8324773202114534E-5 3.3128944266364144E-6 8.51419019335108E-7 1.4496115542220802E-7 -1.4383662919306303E-6 6.687925543855567E-6 -4.6090175135134586E-5 -3.0394306967020373E-4 -0.0013060566187910543 -0.0024994313605626343 -0.003248860751519679 -0.0030463570193731294 -0.0021574406001640236 -0.0017985087149417316 -0.0015188354761708702 -0.0016236750712004643 -0.002613036035577576 -0.003196419536348939 -0.0019833129125235048 -6.995614244974693E-4 -1.9633896601148484E-4 1.346798938721927E-5 -3.370380782614832E-6 6.318278623089348E-7 7.320235179039515E-7 -1.8252461785149034E-5 -6.864103512488895E-4 -0.002177964335501788 -0.006015849527019145 -0.00969464624527731 -0.010441656601881327 -0.007339320981268833 -0.0011968539858906062 0.007617608781435237 0.013775881694329207 0.017755844190986445 0.013838442622289351 0.004486459019136629 -3.207549986596232E-4 -0.0016582220951130327 -0.0013793688613480972 -3.282866797361166E-4 -6.999384689964685E-5 9.192204672749749E-7 2.115520494292128E-5 -1.9517208025610387E-4 -0.0024105714108442235 -0.007733838214029263 -0.015362506091010274 -0.020728123173987357 -0.01635267038662666 -0.0026223957645810244 0.013569309764013314 0.03202770545392543 0.04458612987519072 0.05131689753753861 0.043923011524871956 0.024938113340187456 0.007590808099337236 -0.0019771854514940507 -0.005141845223005903 -0.0019591874783375625 -4.1954772350512445E-4 -1.2543668290955645E-5 -1.0051195199795053E-5 -7.876907980980032E-4 -0.006493619480246863 -0.018421546886132355 -0.029553755171091135 -0.03356658774092236 -0.02047689578117579 0.0016752977296959266 0.019125517193509373 0.03483299347247085 0.04615306768762127 0.052227202050813534 0.05153360523276149 0.037134323995658795 0.017500958020100956 -0.0038355275368202003 -0.014547651460023998 -0.00679345669401272 -0.0011329869052188967 -2.6814043034082467E-5 -1.5072539291906305E-4 -0.0022042716908972707 -0.012882206099833548 -0.029388915094095473 -0.041509959002312226 -0.04320419090615377 -0.024147566828498956 -0.004899817491701434 3.6982698002261446E-4 -0.0021419704777592393 -0.004851174715223014 0.001935299974864821 0.01090484936155661 0.016770819245491904 0.01415932247088805 -0.007111882445834038 -0.02617716539628511 -0.012630177974813965 -0.0016747729407822589 6.854920470008537E-7 -2.9666838381255784E-4 -0.004983892639450805 -0.021233362947989793 -0.03909572063826744 -0.04969375265519981 -0.045134270418871525 -0.028683905655555977 -0.023224491801365477 -0.036203865923618114 -0.06099807508649186 -0.07757104482314614 -0.07062351867081841 -0.05423143485091789 -0.02964199785842091 -0.007126913147507925 -0.016232365947255432 -0.03602941708741636 -0.01704570299837817 -0.0022538905598658288 2.310895591089881E-5 -5.225082443169044E-4 -0.008079333178839387 -0.02646539089166494 -0.04357151219225074 -0.051823547425296886 -0.04555031310440791 -0.030563923132267124 -0.039155437126399316 -0.07284109738086719 -0.11472297932292493 -0.13464079533792178 -0.11804552377345785 -0.09735760591080213 -0.07231065173400306 -0.036654205851750214 -0.026481974172854285 -0.03946202836002437 -0.017639130777174633 -0.0028249999760723166 8.366121863495534E-5 -0.0012553372321442975 -0.011075009153669078 -0.027424141501481904 -0.044953859013505765 -0.05338973779959305 -0.04425355725264098 -0.03443073665818656 -0.06225101527793337 -0.11471638436903166 -0.16904736973667903 -0.18150175347277614 -0.1523062174177479 -0.1249617519570997 -0.0947489543961645 -0.05338663994425124 -0.0359850440035448 -0.04180449961192112 -0.01747184650409019 -0.003240414001351154 1.6455738249844626E-4 -0.002558877495572067 -0.01644490326363354 -0.027585907366657548 -0.043422317370926264 -0.052855298662429745 -0.05079718703457215 -0.06116903996896251 -0.10440245440743087 -0.16263773717319976 -0.20834816127858113 -0.20675347745745973 -0.17244225948651848 -0.13261461248931056 -0.09016673530636043 -0.049398787720063314 -0.041804963867287104 -0.041243634969841986 -0.016541941877235383 -0.0031806380783637013 2.3109654250536238E-4 -0.004047919988019778 -0.019496396591250267 -0.02212636108165451 -0.03214992169090701 -0.05278843595857585 -0.06937735222246917 -0.0941662059444698 -0.133926374882818 -0.18270923928554628 -0.2105491126874821 -0.19440117075907706 -0.1536644502477657 -0.10206165327949643 -0.05826757955840248 -0.03403850511396721 -0.040367487007122435 -0.03504545141243477 -0.013401678839848274 -0.0024667497234389913 3.222537513514785E-4 -0.004328990460631726 -0.017673225375845952 -0.015193731010300672 -0.02089353248469659 -0.04580338162669585 -0.07563611360533139 -0.10284643173302875 -0.1360330105110667 -0.16701550933659337 -0.17545939201483038 -0.14961374018395882 -0.100233908116699 -0.05324140395189558 -0.027995854003339694 -0.023952541199119003 -0.03233856742813403 -0.024163001850425542 -0.008492414962621578 -0.001469433585632699 2.4133928961490386E-4 -0.0029668816778111273 -0.011481956585129648 -0.011207605338167543 -0.01463501714124075 -0.027797492728997862 -0.04625645243581927 -0.0637479606065848 -0.08527172361171612 -0.09649219973556589 -0.08619491629914372 -0.06155264618269667 -0.028634782659775437 -0.010791741549478682 -0.012443476449103387 -0.019289693129570632 -0.022162347214905218 -0.014434610198556904 -0.004417645422359011 -5.79827443675664E-4 8.46010138711935E-5 -0.0014008759440515487 -0.00524975220285011 -0.0076670468245362755 -0.010215947506937764 -0.010664756931578888 -0.008032183632781305 -0.0011516242152124797 6.354367740395287E-4 0.003392018471946989 0.009357646562031295 0.015410254863102709 0.017076924311876518 0.008701136242975999 -0.006545684678255496 -0.01438583679726996 -0.013732735722978427 -0.008296773615426405 -0.002501823452264065 -2.0112469773638563E-4 7.079640909645136E-6 -4.081673476145505E-4 -0.002051650781466719 -0.004339686819305584 -0.008950292222748745 -0.006352027652613754 0.011768828157321207 0.04051092872668692 0.06033913760721381 0.06474897593940829 0.05705039848163721 0.043923740805506574 0.026483464230897216 0.007885708803128066 -0.005330991514739348 -0.010071644366944642 -0.00746410469259937 -0.0036671353844649583 -0.0013793311656232633 -3.173856496939237E-4 2.937929055246113E-7 -3.12482701776886E-5 -7.590579254507812E-4 -0.004275479088483557 -0.011061532542628719 -0.011479172476938153 0.005180845688316129 0.03298025036026504 0.04997948235405214 0.0525847022982485 0.04608072050025552 0.03290834986302922 0.01653293264532928 7.809006113946725E-4 -0.005849272255562164 -0.0057087480086846845 -0.0030529347704415575 -0.0012248962622124324 -4.4880043292771675E-4 -1.2240786537136945E-4 2.391825369611E-6 6.254503468473601E-6 -9.75726513248389E-5 -0.0024141320081458757 -0.008613458159692474 -0.01118902753963099 -0.004828272139628342 0.005590486337306674 0.010813820247618604 0.01277646150969452 0.01192183087410734 0.00736125223878188 0.0014361033650257084 -0.002061057722956574 -0.0032735413629313816 -0.002117064237091557 -6.938828703024924E-4 -9.283386828149855E-5 -3.7372301715029744E-5 6.098780795268821E-6 -8.949912989808933E-8 2.006183331907239E-6 3.876457258673413E-5 -2.834287976896685E-4 -0.0021774601359526627 -0.004610906318171368 -0.003426601480342109 -0.0014571295299253802 -9.893864885999137E-4 -0.0012978972148835705 -0.0014190774101167777 -0.0015359739195380227 -0.001772464514359916 -8.668761431356378E-4 -3.3151518232215667E-4 -4.390747871442879E-5 -2.0650715279932656E-5 1.9228358246233205E-5 6.2290740082845065E-6 8.60040140430251E-7 0.0 -1.6793182924626002E-7 1.3600526684921886E-6 1.5865426284743024E-5 -1.5142854410585014E-4 -2.3583765250524165E-4 -9.382317967044886E-5 1.9349504321351984E-5 6.716087047134252E-5 4.508858669095421E-5 1.7389384578119153E-5 -3.6927490086877337E-6 -6.869446352037958E-5 -5.17288657550199E-5 5.256550026981341E-5 1.2139142716363983E-4 2.9795178509011797E-5 -5.538270531433411E-6 1.4824143900683057E-7 0.0 
