1
0.0 0.0 7.120701088979048E-7 -6.33686785631141E-6 -6.258033234904632E-6 -6.817087757308489E-5 -1.3063061133778497E-5 1.0734797759000717E-4 -2.270407825721282E-5 -2.359302573333941E-5 -6.731213501671421E-6 6.072171310184499E-6 1.311992913060447E-5 2.3983457517509955E-5 3.747930075278001E-5 2.5962462608924766E-5 7.14140828432891E-6 3.0731613715871436E-8 -7.554791651057536E-8 0.0 -2.5181954978162997E-8 2.6023653052232717E-7 -8.785952365834584E-6 8.514347758072418E-5 1.0798692307132449E-4 -9.487941984812141E-5 -2.4734481989936496E-4 -3.342466748726297E-4 -4.6703311515214905E-4 -2.244037084804203E-4 4.1079898338542434E-5 1.0893823478989561E-4 1.1910455349375477E-4 1.329601134469166E-4 1.869504555069395E-5 -2.775255110411135E-6 2.936179353504888E-5 2.9818725771390647E-5 5.716547787437226E-6 1.587756914538196E-6 2.1566502444545836E-7 -2.878825122100858E-6 6.149573780777867E-6 4.61159137443387E-5 -3.3700772827825455E-4 -0.0016107172312044922 -0.0026771135768718997 -0.003120897602420753 -0.0024782362234834687 -0.0012371053973288173 -7.533588838766282E-4 -6.717406479181707E-4 -0.0017567287743291786 -0.004209888069185424 -0.005389089286082204 -0.0032806068558610697 -0.0011545565576768018 -3.227185750852987E-4 6.425247317983798E-6 -9.612005228551208E-6 9.054489682341848E-7 -8.572938508931147E-7 -5.125140318223376E-7 -0.0010074515094283172 -0.0034206353540972225 -0.008273523701764022 -0.01240168569931724 -0.013015445210316105 -0.012171206714490774 -0.011656051188451831 -0.013899067095319994 -0.017938000759472765 -0.02428636654203297 -0.03175317907802523 -0.0331831849950014 -0.02310226568339578 -0.008666369704374823 -0.0020714664428597316 -4.86224642624806E-4 -1.1281619333824473E-4 1.077250725778436E-6 3.268586770220773E-5 -3.2125977078519257E-4 -0.003275140297570117 -0.010378363204549296 -0.021928738648186005 -0.031746251846056776 -0.034496102897214984 -0.03673730471186389 -0.043392417351271174 -0.05351185511800802 -0.06145326666091983 -0.06823009621897001 -0.07993353368101301 -0.08516369031718055 -0.06367517450361569 -0.02601242238276362 -0.006733844987278813 -0.0027059414971336345 -5.601483081691547E-4 -1.3792123368834899E-5 -2.1720123022579817E-5 -0.001150756959044958 -0.007989997703905625 -0.02598442519509794 -0.05034034833468986 -0.0722714162695359 -0.08280006783794472 -0.0918065908055201 -0.1075237856384171 -0.11780847787389806 -0.11601619817461463 -0.11343947326064945 -0.11992854764475497 -0.12305006862845114 -0.09101591874863754 -0.03240108257709815 -0.015442664005404554 -0.009948123087083911 -0.0015538828308964872 -2.7445505766600678E-5 -1.591432489433044E-4 -0.0032099265416256797 -0.01996997550665499 -0.05517617019280762 -0.0995816558563986 -0.131607759725225 -0.1502973146453286 -0.16258297925985488 -0.17676607170864242 -0.17754001988719875 -0.16463837842616 -0.14232652887853342 -0.1146651246997388 -0.09217582556280411 -0.05785256134327496 -0.008452738852561321 -0.019093384181127958 -0.01862926750171376 -0.002457706148664346 6.511580074066205E-6 -2.944108453841912E-4 -0.007228111063990041 -0.038249156773590066 -0.09520226178328837 -0.15831534567648095 -0.19810224532990894 -0.2108855897379346 -0.20936886150049977 -0.21283174106035344 -0.20917226232439862 -0.18307056255222923 -0.10522567938954647 -0.027722439517017507 -0.005427169483746877 -0.01962478355205923 -0.021110933329143846 -0.03474155197738307 -0.02507263124089143 -0.003068022474232247 3.4292982612891264E-5 -6.58906372991771E-4 -0.01141005532739202 -0.04869718923046552 -0.12020578347795813 -0.18920524243167106 -0.21857769579840836 -0.200293877443851 -0.17885576596559913 -0.17585571910620842 -0.1546569443178287 -0.07737107476330693 0.0392954838187176 0.09050624016601849 0.04656648235649772 -0.03639459845803701 -0.07074198635637069 -0.06234626253006932 -0.025614830901064853 -0.003411299458199723 1.1572419008587905E-4 -0.0016881331332714096 -0.015560361843043349 -0.04324383255875792 -0.10912733971544848 -0.15757151419010434 -0.1336373737964889 -0.057904529792752436 0.003816423294282773 0.04918021292404504 0.08956539225650145 0.13881218709509452 0.1777377053852459 0.131965284160428 0.01861400288722076 -0.07168572594313356 -0.07740987682373635 -0.060056622767370484 -0.024520324575061148 -0.003577318851422793 2.3163785189787487E-4 -0.0033021814210138834 -0.02023434307309341 -0.034067020233813035 -0.08188280518311729 -0.08339886710703208 0.0140789368705127 0.15383496494283735 0.2372152430426251 0.23701957147260505 0.17897963868477407 0.13233514465868226 0.07385623079973565 0.003991227426185733 -0.06488008236174608 -0.09495888667973917 -0.05721624987579142 -0.04605260570005149 -0.022420804981181576 -0.0034018333271005584 3.047735847445007E-4 -0.005054442706082217 -0.02798166684302604 -0.03916880284083519 -0.06917173030518647 -0.04684847987462425 0.06762184883288952 0.1660498695115799 0.157028119526803 0.053259396006729465 -0.07710896370092464 -0.1388910714909257 -0.16009388474797628 -0.15918437964110627 -0.16331908195401373 -0.13274850751909764 -0.06806476943146789 -0.04145455442944789 -0.01747186130391052 -0.002550194055483426 4.337614240879486E-4 -0.005908191184631795 -0.025930416984445353 -0.018820711992803028 -0.03279630045786016 -0.03624472842215716 -0.0030530969320878235 -0.008973122053015732 -0.08735378422070406 -0.19414785447738486 -0.2581897807664424 -0.2529832705963122 -0.22892624825018837 -0.21799646958175126 -0.20404957455241693 -0.14720041940532608 -0.07471671572472657 -0.030599352877450647 -0.01011627281779711 -0.001463252681592849 3.443386865395369E-4 -0.004774404476056973 -0.015217184354623395 0.015864661515340654 -0.0024040910860982515 -0.0630123814336436 -0.11024050877620477 -0.15462471623769825 -0.19428213474745934 -0.20767502576740182 -0.2016063535875594 -0.1955240846567165 -0.18818920276832124 -0.17954090411719992 -0.15390689543066743 -0.1033832172457996 -0.049423548534826875 -0.01712839546532653 -0.004875519703446388 -5.385026987044102E-4 1.3071557654778572E-4 -0.0025028207248230204 -0.005810429711569885 0.012322541758376892 -0.024173675738967646 -0.10624686452066387 -0.1618453641204546 -0.17201397610538297 -0.15454991620126066 -0.13507474497641525 -0.12915369987873215 -0.1335032754814794 -0.13365825201072384 -0.11889964146006622 -0.09560600671068818 -0.05847106322713841 -0.024801565620372917 -0.009415261676799654 -0.002803201175934908 -2.1025844968518495E-4 1.3217797691864156E-5 -6.992726672794555E-4 -0.0014843542098987045 -0.004091603007270184 -0.04144482443581248 -0.09229516922119316 -0.11698926311246495 -0.10297985718478019 -0.08153188438838786 -0.07429495977858656 -0.0755518425208302 -0.07816216874500673 -0.07698767697966255 -0.06602629318676825 -0.04731103032931197 -0.0261763847907179 -0.011197424925077989 -0.0043952699404189 -0.001379592866643794 -2.2702284497372387E-4 7.508972129874898E-7 -6.69271011956112E-5 -4.947743639421901E-4 -0.007225147670206481 -0.029730677274956673 -0.053373634419614804 -0.05680056224297527 -0.04352042804219522 -0.035666967733736156 -0.037060483324540115 -0.03887841538466309 -0.03877020636538806 -0.03637006869839325 -0.029285505516536577 -0.019342703772976175 -0.010248163514259317 -0.004265772934803531 -0.0015115227384662163 -4.4897495475521194E-4 -8.025922746893649E-5 3.2344691515882522E-6 9.288223433626142E-6 -6.467497510842707E-5 -0.0035697768382312416 -0.013789004032417715 -0.02264113195051726 -0.01935108494715345 -0.00964027486818883 -0.008281635084844698 -0.010987771450043213 -0.011469489691558706 -0.011802482670434758 -0.012307988812606637 -0.008604502528678318 -0.004509062539935451 -0.0020787205142259557 -6.09648055390985E-4 -1.1959773592490808E-4 -5.1210985653564246E-5 6.4415319608238115E-6 -1.270047003665547E-7 3.073849259037249E-6 4.592782589969487E-5 -3.729610189337332E-4 -0.0028381216737198493 -0.005958915474028659 -0.0041717891560851565 -6.082536057937515E-4 -3.6631003397106187E-5 -3.36362726867301E-4 -2.0410747683766427E-4 -7.972649024649902E-4 -0.0017411937853620354 -9.926398728470041E-4 -3.532108151659325E-4 3.534254927891956E-4 1.8895882232005123E-5 1.564609339736923E-5 6.864186279831637E-6 4.990978543886441E-7 0.0 -2.5806408806803075E-7 -1.395340513836619E-7 4.613845675028855E-5 -2.3285430216558178E-4 -3.579073619104245E-4 -7.936185087224521E-5 -2.9781568629823524E-5 -9.24744400079202E-5 2.8283171344022683E-5 6.350731949538787E-5 -1.90625485418467E-5 8.22865614112467E-5 7.338772800214573E-4 8.00974709902279E-5 4.360230281638468E-5 -2.517714668147524E-5 -2.9664951328807906E-7 2.0808661252209626E-7 0.0 
2
0.0 0.0 0.0 0.0 0.0 0.0 0.0 0.0 0.0 0.0 0.0 0.0 0.0 0.0 0.0 0.0 0.0 0.0 0.0 0.0 0.0 0.0 0.0 0.0 0.0 0.0 0.0 0.0 0.0 0.0 0.0 0.0 0.0 0.0 0.0 0.0 0.0 0.0 0.0 0.0 0.0 0.0 0.0 0.0 0.0 0.0 0.0 0.0 0.0 0.0 0.0 0.0 0.0 0.0 0.0 0.0 0.0 0.0 0.0 0.0 0.0 0.0 0.0 0.0 0.0 0.0 0.0 0.0 0.0 0.0 0.0 0.0 0.0 0.0 0.0 0.0 0.0 0.0 0.0 0.0 0.0 0.0 0.0 0.0 0.0 0.0 0.0 0.0 0.0 0.0 0.0 0.0 0.0 0.0 0.0 0.0 0.0 0.0 0.0 0.0 0.0 0.0 0.0 0.0 0.0 0.0 0.0 0.0 0.0 0.0 0.0 0.0 0.0 0.0 0.0 0.0 0.0 0.0 0.0 0.0 0.0 0.0 0.0 0.0 0.0 0.0 0.0 0.0 0.0 0.0 0.0 0.0 0.0 0.0 0.0 0.0 0.0 0.0 0.0 0.0 0.0 0.0 0.0 0.0 0.0 0.0 0.0 0.0 0.0 0.0 0.0 0.0 0.0 0.0 0.0 0.0 0.0 0.0 0.0 0.0 0.0 0.0 0.0 0.0 0.0 0.0 0.0 0.0 0.0 0.0 0.0 0.0 0.0 0.0 0.0 0.0 0.0 0.0 0.0 0.0 0.0 0.0 0.0 0.0 0.0 0.0 0.0 0.0 0.0 0.0 0.0 0.0 0.0 0.0 0.0 0.0 0.0 0.0 0.0 0.0 0.0 0.0 0.0 0.0 0.0 0.0 0.0 0.0 0.0 0.0 0.0 0.0 0.0 0.0 0.0 0.0 0.0 0.0 0.0 0.0 0.0 0.0 0.0 0.0 0.0 0.0 0.0 0.0 0.0 0.0 0.0 0.0 0.0 0.0 0.0 0.0 0.0 0.0 0.0 0.0 0.0 0.0 0.0 0.0 0.0 0.0 0.0 0.0 0.0 0.0 0.0 0.0 0.0 0.0 0.0 0.0 0.0 0.0 0.0 0.0 0.0 0.0 0.0 0.0 0.0 0.0 0.0 0.0 0.0 0.0 0.0 0.0 0.0 0.0 0.0 0.0 0.0 0.0 0.0 0.0 0.0 0.0 0.0 0.0 0.0 0.0 0.0 0.0 0.0 0.0 0.0 0.0 0.0 0.0 0.0 0.0 0.0 0.0 0.0 0.0 0.0 0.0 0.0 0.0 0.0 0.0 0.0 0.0 0.0 0.0 0.0 0.0 0.0 0.0 0.0 0.0 0.0 0.0 0.0 0.0 0.0 0.0 0.0 0.0 0.0 0.0 0.0 0.0 0.0 0.0 0.0 0.0 0.0 0.0 0.0 0.0 0.0 0.0 0.0 0.0 0.0 0.0 0.0 0.0 0.0 0.0 0.0 0.0 0.0 0.0 0.0 0.0 0.0 0.0 0.0 0.0 0.0 0.0 0.0 0.0 0.0 0.0 0.0 0.0 0.0 0.0 0.0 0.0 0.0 0.0 0.0 0.0 0.0 0.0 0.0 0.0 0.0 0.0 0.0 0.0 0.0 0.0 0.0 0.0 0.0 0.0 0.0 0.0 0.0 0.0 0.0 0.0 0.0 0.0 0.0 0.0 0.0 0.0 0.0 0.0 
3
0.0 0.0 0.0 0.0 0.0 0.0 0.0 0.0 0.0 0.0 0.0 0.0 0.0 0.0 0.0 0.0 0.0 0.0 0.0 0.0 0.0 0.0 0.0 0.0 0.0 0.0 0.0 0.0 0.0 0.0 0.0 0.0 0.0 0.0 0.0 0.0 0.0 0.0 0.0 0.0 0.0 0.0 0.0 0.0 0.0 0.0 0.0 0.0 0.0 0.0 0.0 0.0 0.0 0.0 0.0 0.0 0.0 0.0 0.0 0.0 0.0 0.0 0.0 0.0 0.0 0.0 0.0 0.0 0.0 0.0 0.0 0.0 0.0 0.0 0.0 0.0 0.0 0.0 0.0 0.0 0.0 0.0 0.0 0.0 0.0 0.0 0.0 0.0 0.0 0.0 0.0 0.0 0.0 0.0 0.0 0.0 0.0 0.0 0.0 0.0 0.0 0.0 0.0 0.0 0.0 0.0 0.0 0.0 0.0 0.0 0.0 0.0 0.0 0.0 0.0 0.0 0.0 0.0 0.0 0.0 0.0 0.0 0.0 0.0 0.0 0.0 0.0 0.0 0.0 0.0 0.0 0.0 0.0 0.0 0.0 0.0 0.0 0.0 0.0 0.0 0.0 0.0 0.0 0.0 0.0 0.0 0.0 0.0 0.0 0.0 0.0 0.0 0.0 0.0 0.0 0.0 0.0 0.0 0.0 0.0 0.0 0.0 0.0 0.0 0.0 0.0 0.0 0.0 0.0 0.0 0.0 0.0 0.0 0.0 0.0 0.0 0.0 0.0 0.0 0.0 0.0 0.0 0.0 0.0 0.0 0.0 0.0 0.0 0.0 0.0 0.0 0.0 0.0 0.0 0.0 0.0 0.0 0.0 0.0 0.0 0.0 0.0 0.0 0.0 0.0 0.0 0.0 0.0 0.0 0.0 0.0 0.0 0.0 0.0 0.0 0.0 0.0 0.0 0.0 0.0 0.0 0.0 0.0 0.0 0.0 0.0 0.0 0.0 0.0 0.0 0.0 0.0 0.0 0.0 0.0 0.0 0.0 0.0 0.0 0.0 0.0 0.0 0.0 0.0 0.0 0.0 0.0 0.0 0.0 0.0 0.0 0.0 0.0 0.0 0.0 0.0 0.0 0.0 0.0 0.0 0.0 0.0 0.0 0.0 0.0 0.0 0.0 0.0 0.0 0.0 0.0 0.0 0.0 0.0 0.0 0.0 0.0 0.0 0.0 0.0 0.0 0.0 0.0 0.0 0.0 0.0 0.0 0.0 0.0 0.0 0.0 0.0 0.0 0.0 0.0 0.0 0.0 0.0 0.0 0.0 0.0 0.0 0.0 0.0 0.0 0.0 0.0 0.0 0.0 0.0 0.0 0.0 0.0 0.0 0.0 0.0 0.0 0.0 0.0 0.0 0.0 0.0 0.0 0.0 0.0 0.0 0.0 0.0 0.0 0.0 0.0 0.0 0.0 0.0 0.0 0.0 0.0 0.0 0.0 0.0 0.0 0.0 0.0 0.0 0.0 0.0 0.0 0.0 0.0 0.0 0.0 0.0 0.0 0.0 0.0 0.0 0.0 0.0 0.0 0.0 0.0 0.0 0.0 0.0 0.0 0.0 0.0 0.0 0.0 0.0 0.0 0.0 0.0 0.0 0.0 0.0 0.0 0.0 0.0 0.0 0.0 0.0 0.0 0.0 0.0 0.0 0.0 0.0 0.0 0.0 0.0 0.0 0.0 0.0 0.0 0.0 0.0 0.0 0.0 0.0 
4
0.0 0.0 -1.5120047146153025E-7 1.9790412661888066E-6 5.2474351748394146E-6 -1.5573111535438193E-4 -2.3448681291450004E-4 -1.9192252110662185E-4 -2.7621637976564686E-5 2.953355838400254E-4 1.0451222363541363E-4 -2.0786834657785226E-5 2.1773673456131695E-5 3.8603095932147144E-5 4.983772954320851E-5 3.2447951990014986E-5 9.655369279047763E-6 3.2651460249638576E-7 -1.243510664190153E-7 0.0 -3.196478506470514E-8 4.761110959518893E-7 1.8827782075972356E-6 -2.40688836818344E-5 -6.784547051879325E-5 -4.126786024243427E-4 -0.001346548178411221 -0.0018606256290370317 -6.709818794532292E-4 5.939100505126732E-4 6.542115023069038E-4 7.740511018177873E-7 -1.38003066676367E-5 9.879354096690899E-5 1.795051848344349E-5 8.256957016844227E-6 3.327203638224976E-5 3.958728614128519E-5 7.46639933570962E-6 1.9008322452590782E-6 2.5773617213362237E-7 -4.394652103237973E-6 1.5534557415545837E-5 6.200147599560421E-5 5.946400491906876E-4 -9.625314211472504E-4 -0.0029640453530598923 -0.0034893951363027245 -0.001992833500425338 -4.6048014861636334E-4 0.0028090511131044957 6.848373106187447E-4 -0.004745639399884113 -0.007384869240166014 -0.007553274994749385 -0.004241960335649469 -0.0013843264089564429 -4.4946504338952355E-4 1.3217269052075856E-5 -6.709997716804671E-6 1.3453741667683836E-6 -1.0272850700812026E-5 -7.962556621332358E-5 -6.960126354946792E-5 0.001151816809333077 -0.0031572216769346667 -0.00749207530600418 -0.007843562969613903 -0.0028166498078353126 0.005015840589007762 0.018222326903960664 0.01574595751988986 -0.008638853157785812 -0.03416856746169376 -0.0424915424941534 -0.02946727015002112 -0.011528330197846283 -0.0032246525112079507 -6.109431303783715E-4 -1.5351689726557792E-4 3.312262466533143E-6 2.926733309799832E-5 -6.556110075472335E-4 -0.001871290127374494 -0.0014343269183736882 -0.008720754786310611 -0.017655911324228214 -0.016678434073958456 8.296660101063155E-4 0.03744627126496698 0.08713874300926878 0.08421653435875993 0.00991955242844086 -0.06611072081095007 -0.10113939466938411 -0.08503513617766746 -0.04054526613967012 -0.010241652396599334 -0.00397621958185085 -0.0010496330902898597 -4.240871371687085E-5 -2.320688618324412E-4 -0.0017652928891147845 -0.003521544554628714 -0.004724646614306257 -0.0129633611793079 -0.027995033270882364 -0.015328309376652582 0.039052221775057946 0.10969850992141253 0.1828876049128777 0.17007950786688866 0.039979461920103 -0.09896536194746619 -0.15925271900021065 -0.15793429415663116 -0.09600252255315067 -0.03415940494305325 -0.01335282759525652 -0.002867779050724258 -1.0757439122810302E-4 -8.454015448668129E-4 -0.004822672406506702 -0.013267219305291325 -0.01475437781117231 -0.021560000270839697 -0.03973637198285568 -0.0051640093958681445 0.08056003281885456 0.1552006503827153 0.2059154667716691 0.18570961648391426 0.04177154293446525 -0.12143656522470642 -0.19816664255476632 -0.2152888660042317 -0.15504146271874367 -0.05655199863634135 -0.02280500488673847 -0.004747849234607935 -2.145756506318579E-5 -0.001594812924850012 -0.012516162754354385 -0.03167899368263027 -0.041932754053132903 -0.0619817405905379 -0.07559556622822351 -0.009025227296528118 0.07453859357836302 0.10679545891529571 0.15363233859401682 0.16972945817394755 0.02542529579801755 -0.14771957476337302 -0.22663648461476057 -0.24032428484457202 -0.17676511974321862 -0.06626931871522598 -0.034772752510401114 -0.007338155297391331 4.283370652204075E-5 -0.0020787502510912995 -0.021659251091752284 -0.06497578007037755 -0.10091101250376405 -0.14069448008506022 -0.13105915359126213 -0.04707788404895681 -0.022938878250968398 -0.03616008423588162 0.06228908918749977 0.1279076540782682 0.006292072936018984 -0.1459136341601102 -0.20547694610550635 -0.21154915481041597 -0.15745070124358718 -0.06462885703008725 -0.04124806457705713 -0.008520195792080012 2.349408784047761E-4 -0.003560449766982666 -0.03574601084072896 -0.11525460188122916 -0.18833472494747378 -0.24172103422668917 -0.20192508486575209 -0.13082102286925693 -0.1362600235063584 -0.1419951841128931 -0.040968111772574256 0.05786863098561664 0.003994367443616665 -0.09134859689658177 -0.14458738316276099 -0.16775178331591506 -0.12713608805165405 -0.05614901443430338 -0.038004140575389644 -0.009988380515092717 4.318888089191997E-4 -0.0067307500235673865 -0.05066342548483024 -0.159267905344194 -0.28022009416286475 -0.33541336487789514 -0.27574552687934106 -0.1969348620262565 -0.17571981283835528 -0.17435024421830642 -0.0806328161922737 0.041386250911430535 0.04002327585439268 -0.026540329775852467 -0.10442846932495779 -0.1428772612449556 -0.09207707346881942 -0.034919778468427635 -0.02829726400150551 -0.01130623475386203 4.133643337577315E-4 -0.008947748687189788 -0.05514706544122815 -0.1611350143371404 -0.27282644722074473 -0.32140163367478086 -0.24270723572852274 -0.14297461249299 -0.09409083337978483 -0.0760924503329799 0.01969710471646244 0.11305177473745913 0.08648699484363077 -0.010980530245824632 -0.09671820775203577 -0.11480775630927928 -0.05387844707801783 -0.017792986843736616 -0.02438467522184643 -0.009077022219181143 6.553836269731962E-4 -0.008841628245177478 -0.05044267758166587 -0.1297559557032015 -0.19660944146262183 -0.22252532720093213 -0.15215288493222262 -0.04080650138058554 0.030615803214192026 0.06452792369192943 0.11221501980164003 0.1294124839109002 0.048177998115018626 -0.07349914637248772 -0.11017829518149463 -0.0692961120597797 5.855706364725188E-4 0.005112634319593861 -0.023035343301879882 -0.005054973176543944 4.8460069986679415E-4 -0.00565484823277683 -0.03178310549157024 -0.07208680304277243 -0.0880502132316984 -0.09144058242343536 -0.05995309562160562 0.009062838645038646 0.04564281531383313 0.05733045270614475 0.08820530189981528 0.06225500319837198 -0.048470680247771514 -0.13107336639668182 -0.11057751486081835 -0.042828193416104866 0.016360495614127016 0.012747285044729058 -0.012697758876943705 -0.0021982695981731023 1.774744064571325E-4 -0.002993362643091612 -0.01094953326041803 -0.008516565974702647 0.0077700180072459435 -0.0012001533305293975 -0.006961278114781028 0.0023492611727501675 -0.010379407600326896 9.555036885527905E-4 0.034028214075089686 -0.0030248892617316726 -0.0817464642770751 -0.1124909274486275 -0.08564713236179068 -0.03162978842854023 0.0063533236700188695 0.0045127032655128945 -0.005216098700556318 -0.001366432735429531 8.753666166320751E-6 -0.0010935569416450123 -0.0010839568158642191 0.015560174093424986 0.04673121673908896 0.032598909653846826 4.696228427061804E-4 -0.0203854123235182 -0.04068304723031816 -0.02897964030259819 -0.0030339523391029973 -0.028826043795509317 -0.07160243382757867 -0.0732715018347116 -0.04640205556324819 -0.0146192520290124 0.0016364815241746056 -8.878229143211861E-4 -0.003942474378212628 -0.0011782126975265206 -1.3852363560459363E-6 -2.8455628050134854E-4 -0.0013038610172437788 0.018929155640447008 0.04540589157115711 0.02227813421441788 -0.0034569665576986096 -0.02076917018673363 -0.02953924897594747 -0.024320492617641153 -0.014059263379325053 -0.02411671966960974 -0.03846082848444211 -0.03836836251918856 -0.023739127104947154 -0.006851649658972517 0.0022887701605470616 0.0021750626609632257 -4.5278953100994906E-4 -4.749218363456648E-4 5.024970920649659E-6 -6.043966266374394E-5 -6.847622973735824E-4 0.00679316106889358 0.015892801810913022 0.0030161051818153838 -0.009963620688283211 -0.007686429822808613 -0.010089507452396847 -0.009200175320778475 -0.010456725479145858 -0.012373145994082903 -0.013890975401005102 -0.01275663423454232 -0.007832315855586951 -0.0025829908183420697 9.513928892841445E-4 8.654772593474062E-4 1.0717281062238914E-4 -3.47544281920613E-6 -1.8108306062654933E-7 7.407007418527889E-6 -7.969435548500049E-7 -4.536425784521558E-4 -9.052393024223714E-4 -0.0015991534281300822 -0.002911744528559218 -9.075564260032647E-4 -0.001060925266574774 -0.0014863004633396187 -0.0018544667936425318 -0.0018871863992757998 -0.0025226199353397508 -0.0015040293382076566 -7.51420189434856E-4 -3.316387266533908E-4 -2.277670728948435E-5 -5.640605047861822E-5 -1.746944759811563E-7 4.542689778657735E-6 0.0 -3.298317859568734E-7 1.1161377898731203E-5 -3.837109369355467E-5 -5.583237292726962E-4 -2.57731888314951E-4 -2.319248704420361E-4 -8.210474818022104E-5 -1.1276366957691212E-4 8.141959725919201E-6 6.822449017663781E-5 2.8394250555622126E-4 1.7603180807581882E-4 5.324939643362558E-6 8.436185348538403E-6 -3.61048492036905E-5 -2.7589136130858267E-5 -5.603212127665842E-7 2.933916087705488E-7 0.0 
5
0.0 0.0 -1.6676736033029468E-7 1.960751427908998E-6 3.051398466203304E-6 -1.0136003777979912E-4 -1.513058975403886E-4 -1.727573245679032E-4 -7.718037300583915E-5 -5.557300233558514E-5 -1.3113642661906103E-5 1.5348913187278345E-5 4.282151198943318E-5 -5.2858196175792646E-5 -7.332123271536942E-5 4.288909297459589E-5 1.4954180700668553E-5 1.3237110819452306E-7 -1.5283427606711315E-7 0.0 -3.762205560595603E-8 2.495368252764812E-7 1.3437019149217022E-6 8.101996511002314E-6 5.5406139155515186E-5 -1.522423358585789E-4 -8.045021972573025E-4 -0.0014565069223886993 -0.0011372015462900271 -5.355312235092754E-4 4.1347690765281044E-5 2.647463360259079E-5 -2.758115250809107E-4 9.627054247593718E-4 0.0013017576944635318 -1.0859551912157063E-4 -2.403435756850153E-5 2.6124166972013692E-5 9.656868862049413E-6 2.305102791466374E-6 3.2289694592145855E-7 -3.2073005202264208E-6 2.3050982619767307E-5 -1.4890508318662343E-4 -0.0011531896924325928 -0.003953522191914913 -0.006096879396553722 -0.0065222617133086904 -0.005174434663289266 -0.002563628133792623 -0.0012665573139066745 5.320944880906541E-4 -0.0015825747636634743 -0.005982159633066978 -0.007432558325782997 -0.007119768142784192 -0.002679042678296068 -4.997740185912709E-4 8.764406196733394E-6 -1.1187406103619377E-5 1.32531369385416E-6 4.288029960220323E-6 9.251870757900072E-7 -0.002132051807624368 -0.006918097011689403 -0.014208047454893579 -0.018608875581348903 -0.01884950336652934 -0.016549931095011176 -0.017094915317654516 -0.023710151793568293 -0.02455957247135822 -0.021159308691585964 -0.016297847395778154 -0.017873340313394936 -0.016182445998696993 -0.008723448160378679 -0.0018440602951041943 -8.852293819592538E-4 -1.9521745477649015E-4 1.4939577336751768E-6 6.086017431470738E-5 -5.357392257245959E-4 -0.006466354916885925 -0.016754786393481956 -0.025214563560236564 -0.034122218795753737 -0.03401474449404936 -0.026906179046374754 -0.03112882464444044 -0.06291623459306528 -0.09321545363543454 -0.06262072068335282 0.020271255787805854 0.05671998746094651 0.028233805415043247 -0.0031271540093891904 -0.004392157895456836 -0.0027932743716003114 -7.873633922115081E-4 -1.547144274000815E-5 2.8473659567258628E-5 -0.002129213045213652 -0.01123441165530402 -0.02209216823718452 -0.029676361054629948 -0.03620915544101592 -0.02999953827707761 -0.007707726257941494 -0.010054778319734146 -0.07716349226481863 -0.1464229168342142 -0.11531267206141249 0.006438187205212588 0.10702360022982947 0.09002551746307412 0.014830265373561614 -0.007656427283835113 -0.009223197949644197 -0.002638503138035093 -3.0299196739186285E-5 -2.4399205371303966E-4 -0.00453460333705301 -0.017711019525745254 -0.023119712603018382 -0.023932277327085964 -0.02842659319721954 -0.006394659563460196 0.040622192241994134 0.06384031825082832 -0.0023819858656898077 -0.11872401206513632 -0.1630153195545137 -0.0837171311539467 0.047208849825421964 0.09405425805654583 0.020381113173373527 -0.007753319517551935 -0.013598966675062156 -0.004512187889428172 9.389725038787252E-6 -5.278239990004016E-4 -0.01005695424356359 -0.034092254999614824 -0.03251036135714576 -0.02060875360308676 -0.02926126798941976 0.031208119806528645 0.1290576672174663 0.17744728404002064 0.09324518689249098 -0.07232994920709744 -0.18410514302919917 -0.15637941297058347 -0.032352212885734824 0.056870916873340685 0.027406601378057914 -0.00711485887296685 -0.0182881109767529 -0.005729352352211102 3.4071948312892866E-5 -8.229210781544132E-4 -0.017256866853281178 -0.053547530525782594 -0.042623559170571465 -0.018322780303820833 -0.004141891967312498 0.0817832603775699 0.18530200474243028 0.21995638547978708 0.09251262693592024 -0.10623549215617006 -0.2147100267812884 -0.18507784035842603 -0.0872210243217265 0.005261062492103204 0.02519725339578229 0.006915202722311057 -0.021951955743394792 -0.006888603526702654 1.6242563016648334E-4 -0.0017095210264104251 -0.02810773032098938 -0.08623143140437867 -0.07592024292239317 -0.04196543873812561 -0.004443709517176547 0.0727134602655048 0.1066120996734013 0.10861829972688455 -0.017578135339337476 -0.18000834491277168 -0.23676927377468018 -0.1848450054849862 -0.11283002301584333 -0.043447739905149524 0.012157287392298642 0.006258876567790695 -0.025269756035294088 -0.00810757165808419 3.814697142881562E-4 -0.0042581298825133266 -0.04019324415448098 -0.11302244354810956 -0.09670902089715464 -0.059206520700919064 -0.02346946523340971 -0.02062262180030329 -0.056542550007287654 -0.06276629361663927 -0.13502430017006672 -0.20236093392175905 -0.20264748340443242 -0.14601399718262406 -0.11384738951368441 -0.05658478541974008 0.02182074339013187 -7.5536595642387E-4 -0.03111772900372205 -0.00805585384403661 5.716145314286875E-4 -0.007798908771060905 -0.04796553460354813 -0.11068518274705512 -0.09257821429515568 -0.07088304696720707 -0.0744533237668971 -0.13492126524116077 -0.1662832954273676 -0.1558305164697736 -0.15774990673562692 -0.15759538501985207 -0.11167642827236393 -0.08279056459554404 -0.0765360513528806 -0.009688635063224841 0.03649373626868427 -0.010093957636297744 -0.027575401246212904 -0.005873229062270984 7.702260747784227E-4 -0.009027635503229037 -0.04695252143552823 -0.07392492022153385 -0.054796190785163734 -0.06656792382005172 -0.11319619278537173 -0.2223758396121915 -0.245390020246532 -0.18445899136453744 -0.13381312375309795 -0.08549953758523104 -0.03543089195497857 -0.029816402948069216 -0.007702691643864162 0.03781286808874619 0.034190287906671356 -0.014216906113478683 -0.017813409124980625 -0.003326585110476785 5.735782856326156E-4 -0.00676398306981757 -0.03132687127647671 -0.02358108373999671 0.011605224292951279 -0.02053096099393859 -0.10540201772428252 -0.24483890558429555 -0.26838077614839406 -0.17222857085020749 -0.08625002104199256 -0.03939159593661012 -0.021881238106009105 -0.00735802645459521 0.013037151246388934 0.03207569134193674 0.01371123111875456 -0.011672652987992253 -0.009631023959744234 -0.0015516641941697078 2.1009024144862524E-4 -0.003943131733102508 -0.011511661740104037 0.027737804891837914 0.08528580880301462 0.06670655103073392 -0.05715880324781518 -0.21694352180523477 -0.23112863614335 -0.14835387113308227 -0.07731449006001966 -0.045785489968416804 -0.033471917139335956 -0.013150486123887124 0.005043936265239686 0.01299726099246908 0.004200985223465376 -0.004703244227168885 -0.005710765793201879 -4.8721244767717354E-4 2.916538447498746E-5 -0.00205720123538498 0.003476161280017506 0.06212303380112663 0.13553642020250184 0.14294758107296088 0.01567273205859281 -0.13719351130580493 -0.1573178017385443 -0.12688325976423412 -0.09611762791694481 -0.06252861215423056 -0.02509276941233464 -0.003784006874878113 -0.0013368717701043812 0.004942264819766034 0.00449192454793686 -7.23062460512801E-4 -0.0029333208085670593 -6.007001003022782E-4 2.2145031384088436E-6 -0.0010476458422333716 0.006409135051501696 0.05925958623137539 0.1428991395602782 0.18520494236411927 0.07842688490644577 -0.05352800855334423 -0.08376108470849553 -0.08128380907140415 -0.0689170436415856 -0.048795691628394346 -0.023735356667011046 -0.005171155368480337 0.0013152140807726083 0.004839038261559629 0.0020975713096572364 -0.0012396696045348116 -9.066639028071755E-4 -1.8716865062875674E-4 4.407801603901805E-6 -3.665126993898566E-4 0.0020985029716809813 0.030405586459865182 0.10438290860758763 0.1597693834967609 0.10261493150072543 0.00847660101096029 -0.01978370292800348 -0.02426047126972978 -0.019097407238109442 -0.014513851687254416 -0.011990918818698812 -0.007487729696492274 -0.0029153198465152745 -4.0852536093921214E-4 -5.699664273078079E-4 -3.9456363822774356E-4 -7.947684318357673E-5 1.651073592031076E-5 -1.8158933864397541E-7 -8.015684496299728E-6 -4.492177551176119E-4 0.0034042383471377963 0.02567375869460034 0.054582764447400914 0.039811566476346164 0.01080497364336102 0.0020087999954568237 6.567883191699568E-5 -2.346586290113221E-4 -7.23514374577852E-4 -0.001721685371365733 -0.0013034049568691499 -0.001363604302869297 -9.935857507282115E-4 -2.6568461842346334E-4 5.448273683077432E-5 1.2522825036874226E-5 8.794746097868297E-7 0.0 2.159349287208051E-6 -2.0564406547530404E-5 -7.247602061393523E-5 2.56886764414454E-4 6.075923400161037E-4 5.65833329328299E-4 2.1852688199367322E-4 1.6580781958021963E-4 1.2358206063195469E-6 1.939382745795292E-5 -1.318648122549407E-4 -2.9592067993452695E-4 -1.7103667337113387E-4 -5.969494309473305E-5 -2.8664846578248596E-5 -3.41949671017753E-6 -2.665888982045466E-6 2.6298612038388863E-7 0.0 
6
0.0 0.0 -1.4262637443559887E-7 2.3665284338088794E-6 -1.1104089324993282E-5 -7.312482335586577E-5 -1.2456142572711012E-4 -1.7632540746237248E-4 -8.710849131465574E-5 -6.174831738712779E-5 -1.34694328395331E-5 1.125131831446556E-5 2.1230081387452792E-5 4.5351476184096054E-5 6.652070543151277E-5 3.2147724485188607E-5 7.900272680420856E-6 6.634699142961373E-8 -8.870430068931793E-8 0.0 2.5690596119237797E-7 -3.051896000322769E-6 -9.339765626690492E-8 -7.045094051353864E-6 1.914199622801979E-4 -7.093277383733411E-5 -6.761596302371282E-4 -0.0013444504759944692 -9.741629071140622E-4 -4.47943440541305E-4 8.904087853331654E-5 2.3487111903178895E-4 2.7922818440872133E-4 1.9344227774425446E-4 -3.3480175182750194E-5 6.760866392872249E-5 5.90745131226611E-5 3.63544799193387E-5 6.056585446828042E-6 1.9430320196895615E-6 -2.1582920922176547E-6 2.7690250215878295E-5 -3.050294224687629E-5 -2.1496938726844658E-4 -7.256373137568157E-4 -0.003149183756651673 -0.005557652319694912 -0.0064566964081897585 -0.005397034743691986 -0.0036793364611077692 -0.003059269794284331 -0.0026817177551327863 -0.004141325829393841 -0.007741797201931078 -0.008988881871567255 -0.004615962979215016 -0.0012260873693256936 -3.3284250002022214E-4 9.224624457267691E-6 -1.303467934475009E-5 -1.0111725404240545E-5 8.493474193028926E-5 4.967039512483847E-4 -1.800829362486464E-4 -0.004728390370543206 -0.013418806881096458 -0.020322993968398092 -0.022168705937503128 -0.018926580888388864 -0.014369678351310509 -0.020829293280109684 -0.0303506767288036 -0.04314318678868642 -0.0539056736282126 -0.05305030566461505 -0.03416084743762051 -0.012710634578465345 -0.0027780857263602176 -5.33644836134039E-4 -1.3306296215077182E-4 -1.7804932187922998E-5 4.659521922146249E-5 0.001390923517612908 -0.0024239930301285808 -0.014968120056737498 -0.0320365105851431 -0.045786063040584024 -0.04325303787451986 -0.0337771422117761 -0.03472042492846879 -0.04281335775739013 -0.05744948748241163 -0.08075369496824435 -0.10958028644061986 -0.12250314640621648 -0.09779880851089418 -0.045733455237123764 -0.011524494600121376 -0.002936902722920039 -6.5667270739922E-4 2.9031204275251944E-4 0.0013928093855691318 4.487693572709408E-4 -0.01145530390932981 -0.03830936172078325 -0.06858360795567987 -0.08277263525394869 -0.06996756826327835 -0.05980363666877313 -0.055113726934019294 -0.03689709711761274 -0.009947995374476706 0.004635683624870464 -0.036988179111224075 -0.12138053641189027 -0.16122727924227137 -0.1076848880946596 -0.036437590795683324 -0.010430514277107616 -0.0018143432317954307 6.528741128957232E-4 0.005212506455445453 0.004709929933018165 -0.016226880608565305 -0.05523167885656192 -0.09395778082504218 -0.09965344966110658 -0.07979601336582783 -0.0507934252640819 -0.01349391057391087 0.040782531795612545 0.09897860464838991 0.1590507723212765 0.1421644157829231 -0.009971001832028724 -0.1817870751232347 -0.18720942246906774 -0.07550428965864997 -0.019721968349479018 -0.0026889244594155482 1.6466235024815477E-4 0.009277102120453544 0.014768702982640469 -0.016909266832329295 -0.07362760430683364 -0.10477690568173506 -0.10454407281658712 -0.05657090447792925 0.017184704000638543 0.07428922566874492 0.09714787347631544 0.1064849192318433 0.18344797201243063 0.24459332615246301 0.14084271375821233 -0.12807889995349497 -0.2565122884681079 -0.12159474689578792 -0.026656241245477854 -0.003501477202353482 1.5004321309377E-5 0.010407168096716046 0.02223923562632414 -0.022972600409408746 -0.08047541486148484 -0.10472609040648126 -0.07419914742836956 0.0230122901565501 0.08199252646758971 0.07677490677542176 0.0089338806796589 -0.013012649490653427 0.08527425896202824 0.20238464750139357 0.20376796113866208 -0.044624297984489275 -0.28271801025335014 -0.1489581908694907 -0.027527844941533337 -0.004203613251747829 -4.919856625362661E-4 0.01622085825628041 0.044182622271451776 -0.009059429498138214 -0.071505779016814 -0.08580852284648212 -0.02858343945165516 0.03109856664920224 0.00705991524857794 -0.06951948576902983 -0.12888168951035298 -0.08868506838322536 -0.013388567018687222 0.06751399181155121 0.1493930153748714 -0.0010066488085507894 -0.26661034842294407 -0.15589789910031399 -0.028924017817525252 -0.004755092182422995 -0.0018572235314330441 0.0306586631392364 0.10421360898450095 0.04455992548286062 -0.05066494445751805 -0.09577036239867957 -0.09256827503802054 -0.11121199926082768 -0.16948871418385703 -0.16583416887945043 -0.10485073056832069 -0.09265321713888952 -0.10913458323486346 -0.03439334392374453 0.09888005234536228 -0.005970950936258058 -0.2365234953308574 -0.1405448107545374 -0.02929549866249465 -0.005051754072323855 -0.0032074862093619773 0.044652223980338766 0.16789110796843254 0.09822049797132186 -0.06702880624551262 -0.189283068710358 -0.22958473816592423 -0.25706971197286077 -0.23031964804881205 -0.12126717896581198 -0.04284517335807422 -0.10270798118262818 -0.1462387211219411 -0.014125091562265527 0.10642546404173298 -0.028332140860030296 -0.1898562216444614 -0.10606472269048822 -0.02494278368725873 -0.004110582665569634 -0.003892850447073678 0.05178293097556598 0.1945034068587824 0.1040901919432265 -0.12112005984246077 -0.2929901605992378 -0.3486297396269052 -0.32085181290091574 -0.2071644821814109 -0.07157976960088376 -0.036167683387248344 -0.09690910839873319 -0.07508772248628993 0.0629100726369476 0.08681516167680814 -0.05644974980376104 -0.1335630768104585 -0.06787465453497694 -0.016910466195290193 -0.002552989197435571 -0.00318223685975923 0.04107819201896516 0.15488269663396237 0.05473651983873636 -0.1622561287290746 -0.32014692195228334 -0.35415713701225626 -0.2987034755737712 -0.16057585394729698 -0.013322194329045092 0.009342864148983544 -0.004857553202371936 0.054997258078743366 0.10800338407834194 0.038574347532166146 -0.06661768777129176 -0.08306806848048012 -0.03896980395483962 -0.009669127217428639 -0.0011828032764719147 -0.0012192251938907086 0.022165756774238186 0.07986253668886496 0.00517147401735865 -0.1471120828041304 -0.2566364878021743 -0.2818822080594351 -0.23381540180866708 -0.09773315145370229 0.050080715120898484 0.09561393092125335 0.09893192716880207 0.12718291459224035 0.08064513465536896 -0.008108641039872463 -0.061350590836103724 -0.047646332215187756 -0.020897723254633363 -0.005803864450670494 -4.7011879838031184E-4 -1.945125329076438E-4 0.007551389280960699 0.023124177086332635 -0.015788424803145865 -0.09306020516195762 -0.15654117920200986 -0.1780263799882985 -0.13700954257384812 -0.03680125758322613 0.05565962834238923 0.10118442288045763 0.10314858612877956 0.07299887928539289 0.012713003291599752 -0.029969726946708297 -0.04304113868253346 -0.024007831301973752 -0.009271278046245151 -0.003240052417953985 -8.092945962759612E-4 1.190766335298364E-5 9.94020262708516E-4 0.004125008229276182 -0.011468294255061032 -0.048222350861746754 -0.0820641107625546 -0.08761845447977121 -0.057785755917401024 -0.009494906618446113 0.02871168596087211 0.04910514490495687 0.051191625917512355 0.02255187244586771 -0.006725364394690502 -0.01980921756455082 -0.020935087334232914 -0.009826281723327845 -0.003327946602622818 -9.293459001087286E-4 -2.5196343739097035E-4 2.163536678617772E-6 -1.107840441081617E-4 -5.36503542363777E-4 -0.005741347832248624 -0.019114426367760895 -0.033612329213458365 -0.03154483026341001 -0.012590511501291188 0.005342608063016633 0.02025379946783957 0.02184955847823221 0.016339926688605923 0.0022279968938595813 -0.007078378658274779 -0.010012814548731507 -0.007433418505179386 -0.0022402939903818273 -2.3436223469884828E-4 -5.887372858919748E-5 1.9772194472988436E-5 -4.676637619208017E-9 4.221097292825783E-6 -2.249553457544012E-5 -2.947684562277652E-4 -0.002522862668201189 -0.008378422129330194 -0.0071018713956452414 -0.0018181067146430246 -3.944327520547581E-4 0.004525120438788976 0.006617411278123219 0.0017566148341927245 -0.0030391333211003397 -0.0029489899588246633 -0.001691710733569958 -0.0010666089205012461 -2.795329263575538E-4 8.312395198602503E-5 1.2335446210919074E-5 1.2401956389396728E-6 0.0 -4.388811808574195E-7 -2.924544809594985E-7 1.7750893559882497E-5 6.834001077131246E-4 1.9032436563185865E-4 -3.3440962481347676E-4 -9.063396637882446E-6 -2.3001984676796744E-4 -5.807425523165413E-4 -8.435096579764453E-4 -8.12554838200875E-4 -6.980945612003605E-4 -1.9428314847160945E-4 -6.51470839386954E-5 -2.2072029888949305E-5 -2.2211934475556067E-6 -4.760552035260595E-6 4.2201451840722717E-7 0.0 
7
0.0 0.0 -1.782685417246182E-7 -2.613200986616381E-7 -6.986122156259285E-6 4.641568954230482E-4 6.838667565208917E-4 3.0556099530321893E-4 3.439799501748252E-5 -7.401458058568421E-5 -2.741362823001639E-5 7.73648458990771E-6 1.3353207805809848E-5 -1.596528869175376E-5 2.539421866240018E-5 2.9584832490609258E-5 8.686696320041235E-6 1.8737440205626106E-7 -1.0225372037299531E-7 0.0 -2.602852611000066E-8 1.904242379828941E-7 1.8946009655660942E-6 -7.020601807811016E-6 -5.5616077260856564E-5 8.423846056734289E-4 0.003488648754418137 0.005104345515914919 0.003812111584577916 0.0010124890368042498 -1.9227028539903847E-4 -5.353745675952208E-5 2.8963358184403734E-5 6.186761265159626E-4 2.262532566221878E-4 -7.36899542957883E-6 4.956950497543673E-6 5.688298976432866E-6 -4.917461151032637E-6 -8.133740461875995E-7 2.2265498217789483E-7 -2.2624847697759885E-6 1.5108423037625067E-5 -1.389639589991494E-4 -6.746139143870718E-4 0.004243065464263814 0.014546373823902128 0.024541638274901457 0.02089637287565405 0.009454636841776193 0.003921587100087876 0.0020767917053323517 -6.203525810966042E-4 -0.004281965607755268 -0.005975449497220783 -0.0036491641447806214 -0.001164684524726532 -5.248036823005601E-4 -3.0151676763187976E-4 -8.93134998402516E-5 9.531104228484912E-7 1.6091574066854945E-6 -3.440914254291675E-5 -0.001247044387581248 -0.0015191489611316973 0.017747268508376546 0.04705233042225933 0.05860424410178006 0.03952340579514415 0.016250017792650968 -0.0019147524905712367 -0.011749885411367648 -0.02199873851668047 -0.035565760383126525 -0.03879517756579321 -0.025791994461065445 -0.008624795918026664 6.740056198676256E-4 0.0023566319774842763 5.830529934210796E-4 1.2760687149370227E-6 3.688835966640802E-5 -3.144437264639266E-4 -0.004530781331512595 -0.004112434608359331 0.035838320355148105 0.09245190255356486 0.09008015814702178 0.036672006277831994 -0.008265736272875822 -0.043939063063541416 -0.05935374587176679 -0.07502370053922464 -0.09294833520930466 -0.09856788847387042 -0.0753736745646304 -0.0317449620127857 0.006485672187180881 0.017674783165739907 0.0047502324912083735 -1.836490947949836E-5 -1.4402792871969384E-5 -0.0013327303740756874 -0.011244817924377197 -0.01463724883772392 0.04880979028849816 0.1411490012575609 0.12463905071635038 0.022708396852044132 -0.061898968305261176 -0.11331134966600685 -0.12294276153206192 -0.11922902273297553 -0.13586850445063295 -0.1527332535927272 -0.14045674053803336 -0.06520299962564209 0.03538525132272543 0.05902650388047782 0.012862294264858323 -3.891899696044941E-5 -2.2484580576177565E-4 -0.00350469855915372 -0.02245113801058693 -0.04247111995924703 0.03811759585184408 0.15246806551254793 0.1043434476156073 -0.03362745483922586 -0.1390566172571832 -0.1975765014463191 -0.18158124394135566 -0.14299611262226583 -0.15328063158684602 -0.18037919148986883 -0.1667023175065328 -0.0727482213238122 0.07171146345820827 0.09393806457447261 0.018608183193200775 1.0368403174990032E-6 -3.8009610181614044E-4 -0.007937459651218283 -0.0458156178059195 -0.08785743248525767 0.015055477536438423 0.12707856869629236 0.0481699920519603 -0.1001004490934559 -0.19830158235618078 -0.2495029223855249 -0.2126281927882269 -0.16261019394711368 -0.159810429359896 -0.16424592278078057 -0.13560818498021054 -0.049492063263165305 0.08723095679525245 0.1098936378073949 0.024272886983400015 3.034905085547775E-5 -4.25055223806586E-4 -0.014470808983836575 -0.07972585451505118 -0.142021355082555 -0.022656888665361523 0.10245801571195612 0.025068984931629314 -0.10799885308565482 -0.2024632509951516 -0.2617747724820595 -0.2381405619028012 -0.1680365089637458 -0.11574988075762145 -0.0850979889342341 -0.07092193636826989 -0.043670263272196544 0.06812657326381269 0.097266435003666 0.02583662063846072 1.2596369624453036E-4 -9.334815630379965E-4 -0.023510865499860364 -0.12065901419643167 -0.2016025623286487 -0.06108955253894392 0.09687210897297363 0.03346666692868577 -0.10309743513656085 -0.22585948502276798 -0.3096731885427925 -0.26769995282941206 -0.12109958556734175 -0.018683522503588935 -0.012765771746146093 -0.061967492000205085 -0.060045237059845755 0.05395255747154053 0.09386659991688494 0.028010799297422468 2.395599236030281E-4 -0.002357546782065843 -0.034292490321405855 -0.15746737484318232 -0.2506698639373674 -0.07447483911551614 0.11724756783214262 0.03325378850559949 -0.12227496715447843 -0.24548523697706576 -0.27366923855261055 -0.1510605648058967 0.014738226336381256 0.05052565782878038 -0.01819870590793812 -0.08303381495052341 -0.05240030986437055 0.05880642097498099 0.08966249341970563 0.02499014096396724 3.293650503424185E-4 -0.004319539724197448 -0.040033128858878136 -0.16890029469762918 -0.26063702621004586 -0.056805712875645266 0.13394341696436507 0.06481333914024666 -0.061025487086494766 -0.12326170272910358 -0.08399855993313902 0.017226210273388533 0.06592135551887039 0.0032367731582425433 -0.07855418009663714 -0.10179892427810751 -0.046207916901845406 0.03811246985940282 0.0637796995649112 0.019920345038199505 4.8455703827180515E-4 -0.0047944275000304055 -0.03671879983575951 -0.1543982402971826 -0.23969309291343693 -0.05064174344377751 0.12016105536607515 0.11074189351755974 0.0511777634558441 0.0270562605913781 0.04237526502289829 0.047863307368606826 -0.019139652296466206 -0.09950693856172514 -0.14357352410128166 -0.13049311271799288 -0.07413622969863345 -0.00477408224321371 0.02461859329293835 0.010171475423910968 3.6414687377264384E-4 -0.003191063899100677 -0.02477114402825835 -0.116292046850913 -0.19983375110927987 -0.059931731327706204 0.08311803339804964 0.11285997507010362 0.09908773817227792 0.07165662254016007 0.038309104069144374 -0.01069819919696174 -0.08976279557307464 -0.14738735727892732 -0.1568766171400859 -0.119023428695061 -0.06486537375513345 -0.02161257840310743 5.33726928394276E-4 0.0018597669841423502 1.3603562836395877E-4 -0.0013341409300487543 -0.012534726915653455 -0.0718267430750285 -0.14098320300869752 -0.06393854352357897 0.044582472864422795 0.08047751710197124 0.06690134504438679 0.02755229773265956 -0.0150193698404641 -0.050112648438106144 -0.10534093854674169 -0.12331959021687787 -0.10613141877878979 -0.06937693303783202 -0.03420530506652866 -0.014841117276198214 -0.002953496981098878 2.957430859767796E-4 1.4569171986451035E-5 -2.6568238619773665E-4 -0.004169740940576515 -0.03352945357942962 -0.07411939067902272 -0.05637946920975856 -0.00366919463385926 0.01939856941880243 0.007473635540211153 -0.02096891246657032 -0.038818642383777364 -0.05268531385907142 -0.07494006104322258 -0.07291355804087327 -0.05468922247965484 -0.03049355306550087 -0.01428374943153761 -0.0059757123998343195 -1.73091349318212E-4 0.0015117264156076597 1.3210824551948825E-6 5.0391071885481386E-5 -0.00115538475717337 -0.01566814019677392 -0.03902005877053241 -0.04565126314898199 -0.02556547553697629 -0.009498809235504238 -0.016269756367376365 -0.029339825098414204 -0.03112779688476061 -0.030605021196560337 -0.03796909557331148 -0.03541955660574408 -0.02498164416230906 -0.013466567200705853 -0.006303097469218704 -0.0027876508962273536 -1.3558912907622443E-4 5.447724380129382E-4 3.5166416522353873E-6 2.1779063985919508E-5 -6.567928381274721E-5 -0.005170538216284897 -0.018714644683533566 -0.029054525820666144 -0.021340777519973184 -0.008424627125750555 -0.009790126677163382 -0.014699628417818434 -0.01165153214232552 -0.011245510505172607 -0.013307879466690025 -0.009691381115528117 -0.007342755158741749 -0.00417142963183478 -0.001340783407348683 -2.1803400495422226E-4 -5.4236631142905795E-5 -2.237242161637201E-5 -1.3933774340039032E-7 1.7909205055654606E-6 6.659056851759232E-5 -3.413793411228363E-4 -0.003756913812683377 -0.008217441772843326 -0.005885863644239664 -0.0016404146280605014 -6.114977165270078E-4 -4.43677512901176E-4 4.3667513246284124E-4 -6.268364500785003E-4 -0.0018916624395959075 -0.0010571335795846095 -5.621931015963098E-4 -6.209884526059321E-4 -1.894759763697199E-4 5.569736017345429E-5 3.1403067444244255E-6 -3.0592054421074325E-6 0.0 -2.5133655984376497E-7 1.930575135809645E-6 2.7096740703569077E-5 -2.561634669826648E-4 -5.050410176667185E-4 -2.8244781109789004E-4 1.2242064040259978E-6 -9.065571784135044E-5 2.4487490013322007E-5 -6.027172457443652E-5 -8.192625040679959E-5 -1.8277618214113749E-4 -1.1742628757018604E-4 -8.714239489823372E-6 -1.3095367746611767E-5 -1.144605047904162E-5 -4.793599185329662E-6 4.963353847115766E-7 0.0 
8
0.0 0.0 0.0 0.0 0.0 0.0 0.0 0.0 0.0 0.0 0.0 0.0 0.0 0.0 0.0 0.0 0.0 0.0 0.0 0.0 0.0 0.0 0.0 0.0 0.0 0.0 0.0 0.0 0.0 0.0 0.0 0.0 0.0 0.0 0.0 0.0 0.0 0.0 0.0 0.0 0.0 0.0 0.0 0.0 0.0 0.0 0.0 0.0 0.0 0.0 0.0 0.0 0.0 0.0 0.0 0.0 0.0 0.0 0.0 0.0 0.0 0.0 0.0 0.0 0.0 0.0 0.0 0.0 0.0 0.0 0.0 0.0 0.0 0.0 0.0 0.0 0.0 0.0 0.0 0.0 0.0 0.0 0.0 0.0 0.0 0.0 0.0 0.0 0.0 0.0 0.0 0.0 0.0 0.0 0.0 0.0 0.0 0.0 0.0 0.0 0.0 0.0 0.0 0.0 0.0 0.0 0.0 0.0 0.0 0.0 0.0 0.0 0.0 0.0 0.0 0.0 0.0 0.0 0.0 0.0 0.0 0.0 0.0 0.0 0.0 0.0 0.0 0.0 0.0 0.0 0.0 0.0 0.0 0.0 0.0 0.0 0.0 0.0 0.0 0.0 0.0 0.0 0.0 0.0 0.0 0.0 0.0 0.0 0.0 0.0 0.0 0.0 0.0 0.0 0.0 0.0 0.0 0.0 0.0 0.0 0.0 0.0 0.0 0.0 0.0 0.0 0.0 0.0 0.0 0.0 0.0 0.0 0.0 0.0 0.0 0.0 0.0 0.0 0.0 0.0 0.0 0.0 0.0 0.0 0.0 0.0 0.0 0.0 0.0 0.0 0.0 0.0 0.0 0.0 0.0 0.0 0.0 0.0 0.0 0.0 0.0 0.0 0.0 0.0 0.0 0.0 0.0 0.0 0.0 0.0 0.0 0.0 0.0 0.0 0.0 0.0 0.0 0.0 0.0 0.0 0.0 0.0 0.0 0.0 0.0 0.0 0.0 0.0 0.0 0.0 0.0 0.0 0.0 0.0 0.0 0.0 0.0 0.0 0.0 0.0 0.0 0.0 0.0 0.0 0.0 0.0 0.0 0.0 0.0 0.0 0.0 0.0 0.0 0.0 0.0 0.0 0.0 0.0 0.0 0.0 0.0 0.0 0.0 0.0 0.0 0.0 0.0 0.0 0.0 0.0 0.0 0.0 0.0 0.0 0.0 0.0 0.0 0.0 0.0 0.0 0.0 0.0 0.0 0.0 0.0 0.0 0.0 0.0 0.0 0.0 0.0 0.0 0.0 0.0 0.0 0.0 0.0 0.0 0.0 0.0 0.0 0.0 0.0 0.0 0.0 0.0 0.0 0.0 0.0 0.0 0.0 0.0 0.0 0.0 0.0 0.0 0.0 0.0 0.0 0.0 0.0 0.0 0.0 0.0 0.0 0.0 0.0 0.0 0.0 0.0 0.0 0.0 0.0 0.0 0.0 0.0 0.0 0.0 0.0 0.0 0.0 0.0 0.0 0.0 0.0 0.0 0.0 0.0 0.0 0.0 0.0 0.0 0.0 0.0 0.0 0.0 0.0 0.0 0.0 0.0 0.0 0.0 0.0 0.0 0.0 0.0 0.0 0.0 0.0 0.0 0.0 0.0 0.0 0.0 0.0 0.0 0.0 0.0 0.0 0.0 0.0 0.0 0.0 0.0 0.0 0.0 0.0 0.0 0.0 0.0 0.0 0.0 0.0 0.0 0.0 0.0 0.0 0.0 0.0 0.0 
9
0.0 0.0 -7.74530186294897E-8 9.409024373638417E-7 1.7900786356209138E-6 -5.8651203363289856E-5 -7.26926011029412E-5 -4.024591673121093E-5 -9.716281998910754E-6 -2.180792824074077E-5 -7.050709763071901E-6 5.531416802832227E-6 9.148281765928792E-6 1.7799138752723243E-5 3.294453805827877E-5 2.3583324822984693E-5 6.856617647058798E-6 4.6369899311070417E-8 -7.318899782135077E-8 0.0 -2.4680010893246178E-8 1.9914215686274502E-7 8.340976723329635E-7 2.5663654003268666E-6 1.4442373025599393E-5 -8.335657509531491E-5 -3.037983864379068E-4 -4.598717320261423E-4 -3.7656606583605503E-4 -1.7563814168028246E-4 1.3137311070262002E-5 8.57177576933558E-5 1.4556174500292274E-4 1.7543780637255125E-4 4.005382795479593E-5 2.8809317129648316E-6 2.6005259395425535E-5 2.6236207927384577E-5 3.639365468409633E-7 -8.752382897603511E-7 2.1172190289837287E-7 -2.195079695079702E-6 1.0127849601984493E-5 -6.812308065984428E-5 -4.267697776962462E-4 -0.0014134230701289482 -0.002423566487301773 -0.0027857662488407196 -0.002049385690554804 -6.37304753848866E-4 -2.6850028365468624E-4 -5.250287510360927E-4 -0.001557668500571749 -0.0037774029934912164 -0.004905145958175353 -0.003028733050358041 -9.633902511108341E-4 -2.884195100924937E-4 2.2023348008642095E-5 1.732760928349167E-5 8.845724400871459E-7 -1.5410539215660686E-8 -2.4541646284292414E-5 -8.81511700027227E-4 -0.0029004487966367044 -0.006942394344022321 -0.010237631515522852 -0.0099579322948514 -0.007983297652845828 -0.00711762644165303 -0.00981173396990736 -0.014953544214664967 -0.02246528073492035 -0.029363405034722206 -0.03072446323359203 -0.02124671593647877 -0.008599693108319676 -0.0018208445979916474 -8.913446350761737E-6 -1.9256825299561224E-6 1.0316210511982566E-6 2.603384055010913E-5 -2.4050777587542084E-4 -0.0029542833367374624 -0.00941479526994824 -0.017936430501089333 -0.02470004694989104 -0.024701454226285082 -0.023779011778322475 -0.028798094354234624 -0.03919340133101836 -0.05032079912173213 -0.060911591309635506 -0.07155767306474664 -0.07708875254289221 -0.06200064557632069 -0.0303166180623638 -0.00669785295646322 -8.651495149101295E-4 -3.486087316176466E-4 -1.3360214120370427E-5 -2.2977357366556964E-5 -8.797255139755054E-4 -0.008007427896922615 -0.02403413276484205 -0.04187271636880449 -0.054471589222494586 -0.05646256591659525 -0.05793857557700153 -0.06727577531488285 -0.07922459370404417 -0.08889787664760321 -0.0967971939705543 -0.10659539591333082 -0.12187272685865999 -0.11793147590890526 -0.07230399743498102 -0.020169425429388654 -0.00361772210818356 -9.771039147603482E-4 -2.6854769199346464E-5 -1.7961713813997613E-4 -0.002558085969453605 -0.017747754306236287 -0.04838652635995361 -0.08017564853792204 -0.09490523793402796 -0.09590344799947019 -0.09920764957958855 -0.10935595137357047 -0.11526111152130959 -0.11504120573086896 -0.11457439270718665 -0.12277536546840957 -0.14884660497344804 -0.16370969224537052 -0.12240869089052209 -0.04089203567085181 -0.006011621235021803 -0.0013666100166802792 5.31570767600164E-6 -2.965471512236181E-4 -0.005903856173837818 -0.035938516912274204 -0.08621565656040649 -0.12337026948215175 -0.1325423117789735 -0.13248483240900807 -0.1378231488881416 -0.14052094175397192 -0.1333191743100568 -0.12634737867901819 -0.12357510872873242 -0.13533681386816696 -0.1674027518123323 -0.1975073237553163 -0.16643859646297907 -0.05976393323361639 -0.006455629669262032 -0.001965685605288548 2.2684489038670923E-5 -2.853955286628487E-4 -0.010931478838000875 -0.06127504454997276 -0.12623759393382383 -0.15394686202512317 -0.15476596302423767 -0.14942963001406356 -0.14782117624251054 -0.14470709864855602 -0.14323283872038411 -0.146275654891748 -0.13894443836710044 -0.14319632196010343 -0.17790150436580865 -0.21348237557359787 -0.18398213888718695 -0.06723216539956238 -0.004730755872140533 -0.002178542032611653 9.014307087418262E-5 -6.297805981072869E-4 -0.01780981465628522 -0.09154389197133703 -0.16306607381876378 -0.17267320649339593 -0.1619717242698121 -0.14410234002554567 -0.13757337635144376 -0.14969862662717856 -0.1742021430385351 -0.18193629497719244 -0.15957657988361626 -0.15549722577954775 -0.18752791118770407 -0.21707727378131814 -0.17999306169662288 -0.06714009988551885 -0.005141424385552838 -0.0022290811036220024 1.9876331529139352E-4 -0.0015838769965277643 -0.026112515249412282 -0.12114205430964044 -0.1922045262493187 -0.17998019049734457 -0.15811442406215928 -0.13748079319534512 -0.14033963309674577 -0.1700374384940082 -0.2018397301045065 -0.2007081069886986 -0.17092423618244992 -0.16532939579418535 -0.19447707420513327 -0.20868583999182994 -0.15655591649135359 -0.05567195345175501 -0.005560083903526707 -0.001894489838643787 2.7928808210784205E-4 -0.0031372373689406152 -0.03178428281392253 -0.13200344639331402 -0.1992874787649787 -0.1813429120336336 -0.1603125752689267 -0.14491606260445994 -0.1490779133646516 -0.1769899433670343 -0.1969661366915161 -0.18156734406658515 -0.16158864923803912 -0.16884371296977135 -0.19273785527811862 -0.18137633031556308 -0.11621477813691454 -0.03489500549304945 -0.0030360387731481623 -0.0016259946384803877 3.812277883086694E-4 -0.0037436894694468006 -0.02982941159181581 -0.12044620901784141 -0.1862756724960256 -0.18408767146501634 -0.16919832154552747 -0.1515943586658691 -0.14643990135101156 -0.16077120191118674 -0.17092553986962078 -0.1656761849581477 -0.1606367467867678 -0.17138433060719074 -0.1732638699774439 -0.1335788921551641 -0.07025549540207632 -0.01514459083423733 0.0010659582908700584 -7.55658296305354E-4 2.911603928376898E-4 -0.0025950374523420368 -0.02013994529201143 -0.08980113185253251 -0.1542299673287719 -0.17242645230630507 -0.16564900928989676 -0.1443093520851165 -0.1313963336277913 -0.13057029311342655 -0.13735403433415064 -0.1464403587009811 -0.15042729180085043 -0.1498666929415172 -0.13011361964869264 -0.0840102313538262 -0.03643683652301197 -0.00490617796359705 0.0018317353162445537 -8.253375204248674E-6 1.065677406726575E-4 -0.0011351382404003194 -0.01012972635135131 -0.054470433908632813 -0.10657322033292485 -0.13631625180419332 -0.14060421215447977 -0.12438576329780006 -0.10509273531794656 -0.09849470290883698 -0.1047249313674429 -0.11406178538773132 -0.11719135147194738 -0.10581886664113543 -0.0826452795632487 -0.046755148197508214 -0.016399672664760313 -0.0012234189953528101 0.0012987833129084977 9.474925619553377E-5 1.2626402505446519E-5 -2.46859798815357E-4 -0.003349880645917404 -0.025032832855051684 -0.059376285913670813 -0.08609547801947173 -0.09241862893518525 -0.0790365240070389 -0.06551705687465938 -0.06406038661832779 -0.06794099864174839 -0.07117757705780209 -0.06979056658411832 -0.05990312105290054 -0.042183812631059456 -0.021482553586260923 -0.0072280552134395435 -1.6369198157433062E-4 6.862639161220056E-4 -6.714541802832239E-5 1.1895152505446693E-6 3.1216666666667136E-5 -9.852080547742255E-4 -0.01112876591094768 -0.030102607400599123 -0.04529410925074896 -0.04553000341094769 -0.03619057511074425 -0.031839191246255345 -0.03393467663058285 -0.03583767498468136 -0.035737744417211455 -0.032625210864144646 -0.02634657764501634 -0.017359282390386678 -0.008615604059436285 -0.0028941539760348623 -1.342632553367834E-4 1.4369604438997842E-4 -2.3068031726579378E-5 2.6790030981207417E-6 1.5553267634150158E-5 -1.0944662237801197E-4 -0.003537555766173398 -0.011697617458521853 -0.017378048606864774 -0.014239859072873732 -0.007795306906420987 -0.007286706966015771 -0.009712558645183621 -0.010501977035859379 -0.010745824210522743 -0.010532158193319976 -0.0076234090759311314 -0.005009770047762687 -0.0026280070896688543 -6.529982895791701E-4 3.452230624054102E-5 1.6411340073104713E-5 -4.072703925644834E-7 -1.0808142701524985E-7 1.0116251361655754E-6 4.8662350699115773E-5 -2.3561202342047843E-4 -0.002106922707312098 -0.004233382926538687 -0.0026385419985702685 -4.82817801964861E-4 -1.0774003097766985E-4 -1.2298980630446856E-4 -1.8331470247821504E-4 -5.971445857162337E-4 -0.0013225582052640906 -8.160323188997863E-4 -5.238039198665592E-4 -4.790295309095873E-4 -1.3876421398420464E-4 1.7643658364246804E-5 -1.1218852124183012E-6 1.580712145969494E-7 0.0 -1.544628267973856E-7 2.0204078512902117E-6 7.935697508170016E-6 -1.5437541870915063E-4 -2.435979932598044E-4 -5.4511829384532156E-5 1.248144184908886E-5 -4.614335171568627E-5 2.7420021446078327E-5 4.6340931372548875E-5 4.183665236927956E-6 -6.076024893671972E-5 -1.7244735498366353E-5 -3.10596405228772E-6 -1.2539105051742971E-5 -4.34064202069719E-6 -1.996280216868449E-6 2.0605255991285438E-7 0.0 
10
0.0 0.0 0.0 0.0 0.0 0.0 0.0 0.0 0.0 0.0 0.0 0.0 0.0 0.0 0.0 0.0 0.0 0.0 0.0 0.0 0.0 0.0 0.0 0.0 0.0 0.0 0.0 0.0 0.0 0.0 0.0 0.0 0.0 0.0 0.0 0.0 0.0 0.0 0.0 0.0 0.0 0.0 0.0 0.0 0.0 0.0 0.0 0.0 0.0 0.0 0.0 0.0 0.0 0.0 0.0 0.0 0.0 0.0 0.0 0.0 0.0 0.0 0.0 0.0 0.0 0.0 0.0 0.0 0.0 0.0 0.0 0.0 0.0 0.0 0.0 0.0 0.0 0.0 0.0 0.0 0.0 0.0 0.0 0.0 0.0 0.0 0.0 0.0 0.0 0.0 0.0 0.0 0.0 0.0 0.0 0.0 0.0 0.0 0.0 0.0 0.0 0.0 0.0 0.0 0.0 0.0 0.0 0.0 0.0 0.0 0.0 0.0 0.0 0.0 0.0 0.0 0.0 0.0 0.0 0.0 0.0 0.0 0.0 0.0 0.0 0.0 0.0 0.0 0.0 0.0 0.0 0.0 0.0 0.0 0.0 0.0 0.0 0.0 0.0 0.0 0.0 0.0 0.0 0.0 0.0 0.0 0.0 0.0 0.0 0.0 0.0 0.0 0.0 0.0 0.0 0.0 0.0 0.0 0.0 0.0 0.0 0.0 0.0 0.0 0.0 0.0 0.0 0.0 0.0 0.0 0.0 0.0 0.0 0.0 0.0 0.0 0.0 0.0 0.0 0.0 0.0 0.0 0.0 0.0 0.0 0.0 0.0 0.0 0.0 0.0 0.0 0.0 0.0 0.0 0.0 0.0 0.0 0.0 0.0 0.0 0.0 0.0 0.0 0.0 0.0 0.0 0.0 0.0 0.0 0.0 0.0 0.0 0.0 0.0 0.0 0.0 0.0 0.0 0.0 0.0 0.0 0.0 0.0 0.0 0.0 0.0 0.0 0.0 0.0 0.0 0.0 0.0 0.0 0.0 0.0 0.0 0.0 0.0 0.0 0.0 0.0 0.0 0.0 0.0 0.0 0.0 0.0 0.0 0.0 0.0 0.0 0.0 0.0 0.0 0.0 0.0 0.0 0.0 0.0 0.0 0.0 0.0 0.0 0.0 0.0 0.0 0.0 0.0 0.0 0.0 0.0 0.0 0.0 0.0 0.0 0.0 0.0 0.0 0.0 0.0 0.0 0.0 0.0 0.0 0.0 0.0 0.0 0.0 0.0 0.0 0.0 0.0 0.0 0.0 0.0 0.0 0.0 0.0 0.0 0.0 0.0 0.0 0.0 0.0 0.0 0.0 0.0 0.0 0.0 0.0 0.0 0.0 0.0 0.0 0.0 0.0 0.0 0.0 0.0 0.0 0.0 0.0 0.0 0.0 0.0 0.0 0.0 0.0 0.0 0.0 0.0 0.0 0.0 0.0 0.0 0.0 0.0 0.0 0.0 0.0 0.0 0.0 0.0 0.0 0.0 0.0 0.0 0.0 0.0 0.0 0.0 0.0 0.0 0.0 0.0 0.0 0.0 0.0 0.0 0.0 0.0 0.0 0.0 0.0 0.0 0.0 0.0 0.0 0.0 0.0 0.0 0.0 0.0 0.0 0.0 0.0 0.0 0.0 0.0 0.0 0.0 0.0 0.0 0.0 0.0 0.0 0.0 0.0 0.0 0.0 0.0 0.0 0.0 0.0 0.0 0.0 0.0 0.0 0.0 0.0 
